# KWS weight export
magic 1264014129
version 196608
num_classes 10
reserved 0
layout conv1_out 32
layout conv2_out 64
layout conv3_out 64
layout conv4_out 64
section conv1_weights 288
-1.00000000e+00
-1.00000000e+00
-1.00000000e+00
-1.00000000e+00
-1.00000000e+00
-1.00000000e+00
1.00000000e+00
1.00000000e+00
1.00000000e+00
-1.00000000e+00
-1.00000000e+00
-1.00000000e+00
1.00000000e+00
1.00000000e+00
1.00000000e+00
1.00000000e+00
-1.00000000e+00
-1.00000000e+00
-1.00000000e+00
-1.00000000e+00
-1.00000000e+00
-1.00000000e+00
-1.00000000e+00
-1.00000000e+00
-1.00000000e+00
-1.00000000e+00
-1.00000000e+00
1.00000000e+00
1.00000000e+00
-1.00000000e+00
1.00000000e+00
1.00000000e+00
1.00000000e+00
1.00000000e+00
1.00000000e+00
1.00000000e+00
-1.00000000e+00
-1.00000000e+00
1.00000000e+00
1.00000000e+00
1.00000000e+00
1.00000000e+00
-1.00000000e+00
-1.00000000e+00
-1.00000000e+00
-1.00000000e+00
1.00000000e+00
-1.00000000e+00
1.00000000e+00
1.00000000e+00
1.00000000e+00
1.00000000e+00
1.00000000e+00
1.00000000e+00
-1.00000000e+00
-1.00000000e+00
-1.00000000e+00
1.00000000e+00
-1.00000000e+00
-1.00000000e+00
1.00000000e+00
1.00000000e+00
1.00000000e+00
-1.00000000e+00
-1.00000000e+00
1.00000000e+00
-1.00000000e+00
-1.00000000e+00
-1.00000000e+00
-1.00000000e+00
-1.00000000e+00
1.00000000e+00
1.00000000e+00
1.00000000e+00
1.00000000e+00
1.00000000e+00
-1.00000000e+00
-1.00000000e+00
1.00000000e+00
-1.00000000e+00
-1.00000000e+00
1.00000000e+00
1.00000000e+00
-1.00000000e+00
-1.00000000e+00
-1.00000000e+00
-1.00000000e+00
1.00000000e+00
-1.00000000e+00
-1.00000000e+00
1.00000000e+00
1.00000000e+00
1.00000000e+00
-1.00000000e+00
-1.00000000e+00
-1.00000000e+00
1.00000000e+00
-1.00000000e+00
-1.00000000e+00
1.00000000e+00
1.00000000e+00
1.00000000e+00
1.00000000e+00
1.00000000e+00
1.00000000e+00
-1.00000000e+00
-1.00000000e+00
-1.00000000e+00
-1.00000000e+00
1.00000000e+00
1.00000000e+00
-1.00000000e+00
1.00000000e+00
1.00000000e+00
1.00000000e+00
1.00000000e+00
1.00000000e+00
-1.00000000e+00
-1.00000000e+00
-1.00000000e+00
-1.00000000e+00
-1.00000000e+00
-1.00000000e+00
1.00000000e+00
1.00000000e+00
-1.00000000e+00
-1.00000000e+00
-1.00000000e+00
-1.00000000e+00
-1.00000000e+00
-1.00000000e+00
1.00000000e+00
1.00000000e+00
1.00000000e+00
1.00000000e+00
1.00000000e+00
1.00000000e+00
1.00000000e+00
1.00000000e+00
-1.00000000e+00
-1.00000000e+00
-1.00000000e+00
-1.00000000e+00
-1.00000000e+00
1.00000000e+00
1.00000000e+00
-1.00000000e+00
-1.00000000e+00
-1.00000000e+00
-1.00000000e+00
1.00000000e+00
1.00000000e+00
-1.00000000e+00
1.00000000e+00
1.00000000e+00
1.00000000e+00
1.00000000e+00
-1.00000000e+00
-1.00000000e+00
-1.00000000e+00
-1.00000000e+00
-1.00000000e+00
-1.00000000e+00
-1.00000000e+00
-1.00000000e+00
1.00000000e+00
-1.00000000e+00
-1.00000000e+00
1.00000000e+00
1.00000000e+00
1.00000000e+00
-1.00000000e+00
-1.00000000e+00
-1.00000000e+00
1.00000000e+00
1.00000000e+00
-1.00000000e+00
1.00000000e+00
1.00000000e+00
1.00000000e+00
1.00000000e+00
1.00000000e+00
1.00000000e+00
-1.00000000e+00
-1.00000000e+00
1.00000000e+00
-1.00000000e+00
1.00000000e+00
-1.00000000e+00
1.00000000e+00
1.00000000e+00
1.00000000e+00
-1.00000000e+00
-1.00000000e+00
1.00000000e+00
-1.00000000e+00
-1.00000000e+00
-1.00000000e+00
1.00000000e+00
1.00000000e+00
1.00000000e+00
-1.00000000e+00
-1.00000000e+00
-1.00000000e+00
-1.00000000e+00
-1.00000000e+00
1.00000000e+00
1.00000000e+00
-1.00000000e+00
-1.00000000e+00
1.00000000e+00
1.00000000e+00
-1.00000000e+00
1.00000000e+00
-1.00000000e+00
-1.00000000e+00
-1.00000000e+00
-1.00000000e+00
-1.00000000e+00
-1.00000000e+00
-1.00000000e+00
-1.00000000e+00
1.00000000e+00
1.00000000e+00
1.00000000e+00
-1.00000000e+00
1.00000000e+00
1.00000000e+00
-1.00000000e+00
-1.00000000e+00
1.00000000e+00
-1.00000000e+00
-1.00000000e+00
-1.00000000e+00
1.00000000e+00
1.00000000e+00
1.00000000e+00
-1.00000000e+00
-1.00000000e+00
-1.00000000e+00
-1.00000000e+00
-1.00000000e+00
1.00000000e+00
1.00000000e+00
1.00000000e+00
-1.00000000e+00
1.00000000e+00
-1.00000000e+00
-1.00000000e+00
1.00000000e+00
-1.00000000e+00
-1.00000000e+00
1.00000000e+00
1.00000000e+00
1.00000000e+00
-1.00000000e+00
-1.00000000e+00
1.00000000e+00
-1.00000000e+00
-1.00000000e+00
1.00000000e+00
-1.00000000e+00
-1.00000000e+00
-1.00000000e+00
-1.00000000e+00
-1.00000000e+00
-1.00000000e+00
-1.00000000e+00
-1.00000000e+00
1.00000000e+00
-1.00000000e+00
-1.00000000e+00
-1.00000000e+00
-1.00000000e+00
-1.00000000e+00
-1.00000000e+00
1.00000000e+00
1.00000000e+00
1.00000000e+00
-1.00000000e+00
-1.00000000e+00
-1.00000000e+00
-1.00000000e+00
-1.00000000e+00
-1.00000000e+00
-1.00000000e+00
1.00000000e+00
1.00000000e+00
section conv2_weights 18432
-1.00000000e+00
-1.00000000e+00
-1.00000000e+00
-1.00000000e+00
1.00000000e+00
1.00000000e+00
-1.00000000e+00
1.00000000e+00
1.00000000e+00
-1.00000000e+00
1.00000000e+00
-1.00000000e+00
1.00000000e+00
-1.00000000e+00
1.00000000e+00
1.00000000e+00
-1.00000000e+00
1.00000000e+00
-1.00000000e+00
-1.00000000e+00
-1.00000000e+00
-1.00000000e+00
-1.00000000e+00
1.00000000e+00
-1.00000000e+00
1.00000000e+00
1.00000000e+00
1.00000000e+00
1.00000000e+00
-1.00000000e+00
1.00000000e+00
1.00000000e+00
-1.00000000e+00
1.00000000e+00
1.00000000e+00
-1.00000000e+00
-1.00000000e+00
-1.00000000e+00
-1.00000000e+00
1.00000000e+00
-1.00000000e+00
-1.00000000e+00
-1.00000000e+00
1.00000000e+00
1.00000000e+00
-1.00000000e+00
-1.00000000e+00
-1.00000000e+00
1.00000000e+00
1.00000000e+00
-1.00000000e+00
1.00000000e+00
-1.00000000e+00
-1.00000000e+00
-1.00000000e+00
-1.00000000e+00
-1.00000000e+00
-1.00000000e+00
-1.00000000e+00
1.00000000e+00
-1.00000000e+00
1.00000000e+00
1.00000000e+00
-1.00000000e+00
-1.00000000e+00
1.00000000e+00
-1.00000000e+00
1.00000000e+00
1.00000000e+00
-1.00000000e+00
-1.00000000e+00
1.00000000e+00
1.00000000e+00
-1.00000000e+00
-1.00000000e+00
1.00000000e+00
1.00000000e+00
1.00000000e+00
1.00000000e+00
1.00000000e+00
-1.00000000e+00
-1.00000000e+00
1.00000000e+00
1.00000000e+00
-1.00000000e+00
1.00000000e+00
1.00000000e+00
-1.00000000e+00
1.00000000e+00
1.00000000e+00
-1.00000000e+00
1.00000000e+00
-1.00000000e+00
-1.00000000e+00
1.00000000e+00
1.00000000e+00
-1.00000000e+00
1.00000000e+00
1.00000000e+00
-1.00000000e+00
-1.00000000e+00
-1.00000000e+00
1.00000000e+00
1.00000000e+00
-1.00000000e+00
1.00000000e+00
-1.00000000e+00
-1.00000000e+00
1.00000000e+00
-1.00000000e+00
-1.00000000e+00
1.00000000e+00
1.00000000e+00
-1.00000000e+00
1.00000000e+00
1.00000000e+00
-1.00000000e+00
-1.00000000e+00
-1.00000000e+00
-1.00000000e+00
-1.00000000e+00
1.00000000e+00
1.00000000e+00
-1.00000000e+00
1.00000000e+00
1.00000000e+00
1.00000000e+00
1.00000000e+00
-1.00000000e+00
-1.00000000e+00
1.00000000e+00
1.00000000e+00
-1.00000000e+00
1.00000000e+00
-1.00000000e+00
-1.00000000e+00
1.00000000e+00
1.00000000e+00
-1.00000000e+00
1.00000000e+00
1.00000000e+00
-1.00000000e+00
1.00000000e+00
-1.00000000e+00
-1.00000000e+00
-1.00000000e+00
-1.00000000e+00
1.00000000e+00
1.00000000e+00
1.00000000e+00
1.00000000e+00
-1.00000000e+00
-1.00000000e+00
-1.00000000e+00
1.00000000e+00
-1.00000000e+00
-1.00000000e+00
1.00000000e+00
1.00000000e+00
-1.00000000e+00
-1.00000000e+00
1.00000000e+00
1.00000000e+00
1.00000000e+00
-1.00000000e+00
-1.00000000e+00
1.00000000e+00
1.00000000e+00
1.00000000e+00
1.00000000e+00
-1.00000000e+00
-1.00000000e+00
-1.00000000e+00
-1.00000000e+00
1.00000000e+00
1.00000000e+00
-1.00000000e+00
1.00000000e+00
1.00000000e+00
1.00000000e+00
-1.00000000e+00
1.00000000e+00
-1.00000000e+00
1.00000000e+00
1.00000000e+00
-1.00000000e+00
-1.00000000e+00
1.00000000e+00
-1.00000000e+00
1.00000000e+00
-1.00000000e+00
1.00000000e+00
-1.00000000e+00
1.00000000e+00
-1.00000000e+00
-1.00000000e+00
1.00000000e+00
-1.00000000e+00
-1.00000000e+00
1.00000000e+00
1.00000000e+00
-1.00000000e+00
1.00000000e+00
1.00000000e+00
-1.00000000e+00
-1.00000000e+00
-1.00000000e+00
-1.00000000e+00
-1.00000000e+00
-1.00000000e+00
1.00000000e+00
1.00000000e+00
1.00000000e+00
1.00000000e+00
-1.00000000e+00
1.00000000e+00
-1.00000000e+00
-1.00000000e+00
-1.00000000e+00
-1.00000000e+00
1.00000000e+00
1.00000000e+00
-1.00000000e+00
1.00000000e+00
1.00000000e+00
-1.00000000e+00
-1.00000000e+00
1.00000000e+00
-1.00000000e+00
-1.00000000e+00
-1.00000000e+00
-1.00000000e+00
-1.00000000e+00
1.00000000e+00
-1.00000000e+00
1.00000000e+00
1.00000000e+00
-1.00000000e+00
-1.00000000e+00
1.00000000e+00
-1.00000000e+00
-1.00000000e+00
-1.00000000e+00
1.00000000e+00
-1.00000000e+00
-1.00000000e+00
1.00000000e+00
1.00000000e+00
1.00000000e+00
-1.00000000e+00
-1.00000000e+00
1.00000000e+00
-1.00000000e+00
-1.00000000e+00
-1.00000000e+00
1.00000000e+00
1.00000000e+00
1.00000000e+00
-1.00000000e+00
1.00000000e+00
-1.00000000e+00
-1.00000000e+00
-1.00000000e+00
1.00000000e+00
-1.00000000e+00
1.00000000e+00
1.00000000e+00
-1.00000000e+00
-1.00000000e+00
1.00000000e+00
-1.00000000e+00
-1.00000000e+00
-1.00000000e+00
-1.00000000e+00
1.00000000e+00
1.00000000e+00
-1.00000000e+00
1.00000000e+00
1.00000000e+00
-1.00000000e+00
-1.00000000e+00
1.00000000e+00
-1.00000000e+00
1.00000000e+00
1.00000000e+00
-1.00000000e+00
-1.00000000e+00
1.00000000e+00
-1.00000000e+00
1.00000000e+00
-1.00000000e+00
-1.00000000e+00
-1.00000000e+00
-1.00000000e+00
-1.00000000e+00
1.00000000e+00
-1.00000000e+00
-1.00000000e+00
1.00000000e+00
-1.00000000e+00
1.00000000e+00
1.00000000e+00
-1.00000000e+00
1.00000000e+00
1.00000000e+00
-1.00000000e+00
-1.00000000e+00
-1.00000000e+00
-1.00000000e+00
-1.00000000e+00
1.00000000e+00
-1.00000000e+00
-1.00000000e+00
1.00000000e+00
1.00000000e+00
1.00000000e+00
-1.00000000e+00
1.00000000e+00
1.00000000e+00
-1.00000000e+00
-1.00000000e+00
1.00000000e+00
-1.00000000e+00
-1.00000000e+00
-1.00000000e+00
-1.00000000e+00
-1.00000000e+00
-1.00000000e+00
1.00000000e+00
-1.00000000e+00
-1.00000000e+00
1.00000000e+00
1.00000000e+00
-1.00000000e+00
-1.00000000e+00
-1.00000000e+00
1.00000000e+00
-1.00000000e+00
-1.00000000e+00
1.00000000e+00
1.00000000e+00
1.00000000e+00
-1.00000000e+00
-1.00000000e+00
-1.00000000e+00
1.00000000e+00
1.00000000e+00
-1.00000000e+00
1.00000000e+00
1.00000000e+00
-1.00000000e+00
-1.00000000e+00
1.00000000e+00
1.00000000e+00
-1.00000000e+00
1.00000000e+00
1.00000000e+00
-1.00000000e+00
-1.00000000e+00
1.00000000e+00
1.00000000e+00
1.00000000e+00
1.00000000e+00
-1.00000000e+00
-1.00000000e+00
-1.00000000e+00
1.00000000e+00
-1.00000000e+00
-1.00000000e+00
1.00000000e+00
1.00000000e+00
-1.00000000e+00
1.00000000e+00
1.00000000e+00
-1.00000000e+00
-1.00000000e+00
1.00000000e+00
-1.00000000e+00
1.00000000e+00
1.00000000e+00
1.00000000e+00
-1.00000000e+00
1.00000000e+00
-1.00000000e+00
-1.00000000e+00
1.00000000e+00
-1.00000000e+00
1.00000000e+00
-1.00000000e+00
1.00000000e+00
-1.00000000e+00
-1.00000000e+00
-1.00000000e+00
-1.00000000e+00
-1.00000000e+00
-1.00000000e+00
1.00000000e+00
-1.00000000e+00
1.00000000e+00
1.00000000e+00
-1.00000000e+00
1.00000000e+00
1.00000000e+00
-1.00000000e+00
1.00000000e+00
-1.00000000e+00
-1.00000000e+00
-1.00000000e+00
-1.00000000e+00
1.00000000e+00
-1.00000000e+00
1.00000000e+00
1.00000000e+00
-1.00000000e+00
-1.00000000e+00
1.00000000e+00
-1.00000000e+00
-1.00000000e+00
1.00000000e+00
-1.00000000e+00
-1.00000000e+00
1.00000000e+00
1.00000000e+00
1.00000000e+00
1.00000000e+00
-1.00000000e+00
-1.00000000e+00
1.00000000e+00
1.00000000e+00
-1.00000000e+00
1.00000000e+00
-1.00000000e+00
1.00000000e+00
1.00000000e+00
-1.00000000e+00
-1.00000000e+00
-1.00000000e+00
-1.00000000e+00
1.00000000e+00
1.00000000e+00
-1.00000000e+00
-1.00000000e+00
1.00000000e+00
-1.00000000e+00
-1.00000000e+00
1.00000000e+00
1.00000000e+00
-1.00000000e+00
1.00000000e+00
-1.00000000e+00
-1.00000000e+00
1.00000000e+00
-1.00000000e+00
1.00000000e+00
1.00000000e+00
-1.00000000e+00
-1.00000000e+00
1.00000000e+00
-1.00000000e+00
-1.00000000e+00
-1.00000000e+00
-1.00000000e+00
1.00000000e+00
-1.00000000e+00
-1.00000000e+00
1.00000000e+00
1.00000000e+00
-1.00000000e+00
1.00000000e+00
1.00000000e+00
1.00000000e+00
-1.00000000e+00
-1.00000000e+00
1.00000000e+00
-1.00000000e+00
-1.00000000e+00
1.00000000e+00
-1.00000000e+00
1.00000000e+00
1.00000000e+00
-1.00000000e+00
1.00000000e+00
1.00000000e+00
-1.00000000e+00
-1.00000000e+00
1.00000000e+00
1.00000000e+00
1.00000000e+00
1.00000000e+00
-1.00000000e+00
1.00000000e+00
1.00000000e+00
-1.00000000e+00
-1.00000000e+00
1.00000000e+00
-1.00000000e+00
-1.00000000e+00
-1.00000000e+00
1.00000000e+00
1.00000000e+00
-1.00000000e+00
1.00000000e+00
1.00000000e+00
-1.00000000e+00
-1.00000000e+00
1.00000000e+00
-1.00000000e+00
-1.00000000e+00
1.00000000e+00
-1.00000000e+00
-1.00000000e+00
1.00000000e+00
1.00000000e+00
-1.00000000e+00
-1.00000000e+00
-1.00000000e+00
-1.00000000e+00
-1.00000000e+00
1.00000000e+00
-1.00000000e+00
-1.00000000e+00
1.00000000e+00
-1.00000000e+00
1.00000000e+00
1.00000000e+00
-1.00000000e+00
1.00000000e+00
1.00000000e+00
-1.00000000e+00
-1.00000000e+00
1.00000000e+00
1.00000000e+00
1.00000000e+00
-1.00000000e+00
-1.00000000e+00
1.00000000e+00
-1.00000000e+00
1.00000000e+00
1.00000000e+00
-1.00000000e+00
1.00000000e+00
1.00000000e+00
1.00000000e+00
-1.00000000e+00
-1.00000000e+00
1.00000000e+00
-1.00000000e+00
-1.00000000e+00
1.00000000e+00
-1.00000000e+00
1.00000000e+00
-1.00000000e+00
-1.00000000e+00
1.00000000e+00
-1.00000000e+00
-1.00000000e+00
1.00000000e+00
1.00000000e+00
-1.00000000e+00
-1.00000000e+00
-1.00000000e+00
-1.00000000e+00
1.00000000e+00
-1.00000000e+00
1.00000000e+00
1.00000000e+00
1.00000000e+00
-1.00000000e+00
-1.00000000e+00
-1.00000000e+00
-1.00000000e+00
-1.00000000e+00
1.00000000e+00
-1.00000000e+00
1.00000000e+00
1.00000000e+00
-1.00000000e+00
1.00000000e+00
1.00000000e+00
-1.00000000e+00
-1.00000000e+00
1.00000000e+00
1.00000000e+00
-1.00000000e+00
-1.00000000e+00
-1.00000000e+00
1.00000000e+00
1.00000000e+00
1.00000000e+00
1.00000000e+00
-1.00000000e+00
-1.00000000e+00
1.00000000e+00
-1.00000000e+00
1.00000000e+00
1.00000000e+00
1.00000000e+00
1.00000000e+00
-1.00000000e+00
-1.00000000e+00
1.00000000e+00
-1.00000000e+00
-1.00000000e+00
-1.00000000e+00
-1.00000000e+00
1.00000000e+00
-1.00000000e+00
1.00000000e+00
1.00000000e+00
-1.00000000e+00
1.00000000e+00
1.00000000e+00
1.00000000e+00
1.00000000e+00
1.00000000e+00
1.00000000e+00
-1.00000000e+00
-1.00000000e+00
-1.00000000e+00
-1.00000000e+00
-1.00000000e+00
1.00000000e+00
1.00000000e+00
-1.00000000e+00
-1.00000000e+00
-1.00000000e+00
-1.00000000e+00
-1.00000000e+00
1.00000000e+00
1.00000000e+00
-1.00000000e+00
1.00000000e+00
1.00000000e+00
-1.00000000e+00
-1.00000000e+00
1.00000000e+00
1.00000000e+00
-1.00000000e+00
-1.00000000e+00
1.00000000e+00
1.00000000e+00
1.00000000e+00
1.00000000e+00
1.00000000e+00
1.00000000e+00
1.00000000e+00
1.00000000e+00
-1.00000000e+00
-1.00000000e+00
1.00000000e+00
-1.00000000e+00
-1.00000000e+00
1.00000000e+00
1.00000000e+00
-1.00000000e+00
1.00000000e+00
-1.00000000e+00
1.00000000e+00
1.00000000e+00
1.00000000e+00
1.00000000e+00
1.00000000e+00
1.00000000e+00
-1.00000000e+00
-1.00000000e+00
-1.00000000e+00
-1.00000000e+00
1.00000000e+00
1.00000000e+00
1.00000000e+00
1.00000000e+00
-1.00000000e+00
1.00000000e+00
-1.00000000e+00
-1.00000000e+00
1.00000000e+00
1.00000000e+00
1.00000000e+00
-1.00000000e+00
1.00000000e+00
-1.00000000e+00
1.00000000e+00
1.00000000e+00
1.00000000e+00
1.00000000e+00
1.00000000e+00
-1.00000000e+00
1.00000000e+00
1.00000000e+00
1.00000000e+00
1.00000000e+00
1.00000000e+00
1.00000000e+00
1.00000000e+00
1.00000000e+00
1.00000000e+00
1.00000000e+00
-1.00000000e+00
1.00000000e+00
1.00000000e+00
-1.00000000e+00
1.00000000e+00
-1.00000000e+00
1.00000000e+00
1.00000000e+00
-1.00000000e+00
-1.00000000e+00
-1.00000000e+00
1.00000000e+00
1.00000000e+00
1.00000000e+00
-1.00000000e+00
1.00000000e+00
1.00000000e+00
1.00000000e+00
1.00000000e+00
-1.00000000e+00
-1.00000000e+00
1.00000000e+00
-1.00000000e+00
1.00000000e+00
1.00000000e+00
1.00000000e+00
-1.00000000e+00
1.00000000e+00
-1.00000000e+00
-1.00000000e+00
-1.00000000e+00
-1.00000000e+00
1.00000000e+00
1.00000000e+00
-1.00000000e+00
1.00000000e+00
1.00000000e+00
-1.00000000e+00
-1.00000000e+00
1.00000000e+00
-1.00000000e+00
-1.00000000e+00
1.00000000e+00
1.00000000e+00
-1.00000000e+00
-1.00000000e+00
1.00000000e+00
-1.00000000e+00
1.00000000e+00
1.00000000e+00
-1.00000000e+00
1.00000000e+00
1.00000000e+00
-1.00000000e+00
1.00000000e+00
1.00000000e+00
1.00000000e+00
1.00000000e+00
1.00000000e+00
1.00000000e+00
1.00000000e+00
-1.00000000e+00
1.00000000e+00
-1.00000000e+00
1.00000000e+00
1.00000000e+00
-1.00000000e+00
-1.00000000e+00
1.00000000e+00
1.00000000e+00
-1.00000000e+00
1.00000000e+00
-1.00000000e+00
-1.00000000e+00
1.00000000e+00
-1.00000000e+00
-1.00000000e+00
1.00000000e+00
1.00000000e+00
1.00000000e+00
1.00000000e+00
-1.00000000e+00
-1.00000000e+00
1.00000000e+00
-1.00000000e+00
-1.00000000e+00
1.00000000e+00
1.00000000e+00
1.00000000e+00
-1.00000000e+00
-1.00000000e+00
-1.00000000e+00
-1.00000000e+00
-1.00000000e+00
-1.00000000e+00
1.00000000e+00
-1.00000000e+00
1.00000000e+00
1.00000000e+00
-1.00000000e+00
-1.00000000e+00
1.00000000e+00
-1.00000000e+00
1.00000000e+00
1.00000000e+00
1.00000000e+00
-1.00000000e+00
1.00000000e+00
1.00000000e+00
-1.00000000e+00
1.00000000e+00
-1.00000000e+00
-1.00000000e+00
1.00000000e+00
1.00000000e+00
1.00000000e+00
1.00000000e+00
1.00000000e+00
1.00000000e+00
1.00000000e+00
-1.00000000e+00
-1.00000000e+00
-1.00000000e+00
-1.00000000e+00
1.00000000e+00
1.00000000e+00
-1.00000000e+00
1.00000000e+00
1.00000000e+00
-1.00000000e+00
-1.00000000e+00
-1.00000000e+00
1.00000000e+00
-1.00000000e+00
1.00000000e+00
-1.00000000e+00
1.00000000e+00
1.00000000e+00
-1.00000000e+00
-1.00000000e+00
1.00000000e+00
1.00000000e+00
1.00000000e+00
1.00000000e+00
1.00000000e+00
1.00000000e+00
1.00000000e+00
-1.00000000e+00
-1.00000000e+00
1.00000000e+00
1.00000000e+00
1.00000000e+00
1.00000000e+00
-1.00000000e+00
-1.00000000e+00
1.00000000e+00
-1.00000000e+00
-1.00000000e+00
1.00000000e+00
1.00000000e+00
1.00000000e+00
1.00000000e+00
1.00000000e+00
-1.00000000e+00
1.00000000e+00
-1.00000000e+00
-1.00000000e+00
1.00000000e+00
1.00000000e+00
1.00000000e+00
1.00000000e+00
1.00000000e+00
-1.00000000e+00
-1.00000000e+00
-1.00000000e+00
-1.00000000e+00
-1.00000000e+00
-1.00000000e+00
-1.00000000e+00
1.00000000e+00
1.00000000e+00
1.00000000e+00
-1.00000000e+00
1.00000000e+00
-1.00000000e+00
1.00000000e+00
1.00000000e+00
1.00000000e+00
1.00000000e+00
1.00000000e+00
-1.00000000e+00
-1.00000000e+00
-1.00000000e+00
-1.00000000e+00
-1.00000000e+00
-1.00000000e+00
-1.00000000e+00
-1.00000000e+00
-1.00000000e+00
1.00000000e+00
1.00000000e+00
1.00000000e+00
1.00000000e+00
1.00000000e+00
1.00000000e+00
1.00000000e+00
1.00000000e+00
1.00000000e+00
-1.00000000e+00
-1.00000000e+00
-1.00000000e+00
-1.00000000e+00
-1.00000000e+00
-1.00000000e+00
-1.00000000e+00
1.00000000e+00
1.00000000e+00
1.00000000e+00
1.00000000e+00
1.00000000e+00
1.00000000e+00
1.00000000e+00
1.00000000e+00
1.00000000e+00
1.00000000e+00
1.00000000e+00
-1.00000000e+00
-1.00000000e+00
-1.00000000e+00
-1.00000000e+00
1.00000000e+00
1.00000000e+00
1.00000000e+00
1.00000000e+00
1.00000000e+00
1.00000000e+00
-1.00000000e+00
-1.00000000e+00
-1.00000000e+00
-1.00000000e+00
-1.00000000e+00
-1.00000000e+00
-1.00000000e+00
-1.00000000e+00
-1.00000000e+00
1.00000000e+00
1.00000000e+00
1.00000000e+00
1.00000000e+00
1.00000000e+00
-1.00000000e+00
-1.00000000e+00
1.00000000e+00
-1.00000000e+00
-1.00000000e+00
-1.00000000e+00
-1.00000000e+00
1.00000000e+00
1.00000000e+00
1.00000000e+00
-1.00000000e+00
1.00000000e+00
-1.00000000e+00
-1.00000000e+00
-1.00000000e+00
-1.00000000e+00
-1.00000000e+00
-1.00000000e+00
-1.00000000e+00
-1.00000000e+00
1.00000000e+00
1.00000000e+00
1.00000000e+00
1.00000000e+00
1.00000000e+00
-1.00000000e+00
-1.00000000e+00
-1.00000000e+00
1.00000000e+00
-1.00000000e+00
-1.00000000e+00
1.00000000e+00
1.00000000e+00
1.00000000e+00
1.00000000e+00
1.00000000e+00
1.00000000e+00
1.00000000e+00
1.00000000e+00
-1.00000000e+00
-1.00000000e+00
-1.00000000e+00
-1.00000000e+00
-1.00000000e+00
1.00000000e+00
1.00000000e+00
1.00000000e+00
1.00000000e+00
-1.00000000e+00
-1.00000000e+00
-1.00000000e+00
-1.00000000e+00
1.00000000e+00
1.00000000e+00
1.00000000e+00
-1.00000000e+00
1.00000000e+00
-1.00000000e+00
-1.00000000e+00
-1.00000000e+00
-1.00000000e+00
-1.00000000e+00
-1.00000000e+00
-1.00000000e+00
-1.00000000e+00
1.00000000e+00
1.00000000e+00
1.00000000e+00
1.00000000e+00
1.00000000e+00
1.00000000e+00
1.00000000e+00
-1.00000000e+00
-1.00000000e+00
1.00000000e+00
1.00000000e+00
-1.00000000e+00
1.00000000e+00
-1.00000000e+00
-1.00000000e+00
-1.00000000e+00
1.00000000e+00
1.00000000e+00
1.00000000e+00
-1.00000000e+00
1.00000000e+00
1.00000000e+00
-1.00000000e+00
-1.00000000e+00
-1.00000000e+00
1.00000000e+00
1.00000000e+00
-1.00000000e+00
1.00000000e+00
1.00000000e+00
1.00000000e+00
1.00000000e+00
1.00000000e+00
1.00000000e+00
-1.00000000e+00
-1.00000000e+00
-1.00000000e+00
-1.00000000e+00
1.00000000e+00
1.00000000e+00
1.00000000e+00
1.00000000e+00
1.00000000e+00
-1.00000000e+00
-1.00000000e+00
1.00000000e+00
1.00000000e+00
-1.00000000e+00
1.00000000e+00
-1.00000000e+00
1.00000000e+00
1.00000000e+00
1.00000000e+00
-1.00000000e+00
1.00000000e+00
1.00000000e+00
-1.00000000e+00
-1.00000000e+00
-1.00000000e+00
1.00000000e+00
-1.00000000e+00
1.00000000e+00
-1.00000000e+00
-1.00000000e+00
-1.00000000e+00
-1.00000000e+00
-1.00000000e+00
-1.00000000e+00
1.00000000e+00
1.00000000e+00
1.00000000e+00
1.00000000e+00
-1.00000000e+00
-1.00000000e+00
-1.00000000e+00
-1.00000000e+00
-1.00000000e+00
1.00000000e+00
1.00000000e+00
1.00000000e+00
-1.00000000e+00
-1.00000000e+00
-1.00000000e+00
-1.00000000e+00
-1.00000000e+00
-1.00000000e+00
1.00000000e+00
1.00000000e+00
1.00000000e+00
-1.00000000e+00
-1.00000000e+00
-1.00000000e+00
-1.00000000e+00
-1.00000000e+00
-1.00000000e+00
1.00000000e+00
1.00000000e+00
1.00000000e+00
-1.00000000e+00
1.00000000e+00
-1.00000000e+00
-1.00000000e+00
1.00000000e+00
-1.00000000e+00
1.00000000e+00
1.00000000e+00
1.00000000e+00
-1.00000000e+00
-1.00000000e+00
-1.00000000e+00
-1.00000000e+00
-1.00000000e+00
-1.00000000e+00
1.00000000e+00
1.00000000e+00
1.00000000e+00
1.00000000e+00
-1.00000000e+00
-1.00000000e+00
-1.00000000e+00
-1.00000000e+00
-1.00000000e+00
1.00000000e+00
1.00000000e+00
1.00000000e+00
1.00000000e+00
-1.00000000e+00
-1.00000000e+00
-1.00000000e+00
-1.00000000e+00
-1.00000000e+00
1.00000000e+00
1.00000000e+00
1.00000000e+00
1.00000000e+00
-1.00000000e+00
1.00000000e+00
-1.00000000e+00
-1.00000000e+00
1.00000000e+00
-1.00000000e+00
-1.00000000e+00
-1.00000000e+00
1.00000000e+00
1.00000000e+00
1.00000000e+00
1.00000000e+00
1.00000000e+00
1.00000000e+00
1.00000000e+00
-1.00000000e+00
-1.00000000e+00
1.00000000e+00
-1.00000000e+00
1.00000000e+00
-1.00000000e+00
1.00000000e+00
1.00000000e+00
-1.00000000e+00
-1.00000000e+00
1.00000000e+00
-1.00000000e+00
-1.00000000e+00
1.00000000e+00
-1.00000000e+00
1.00000000e+00
-1.00000000e+00
-1.00000000e+00
-1.00000000e+00
-1.00000000e+00
1.00000000e+00
1.00000000e+00
1.00000000e+00
1.00000000e+00
1.00000000e+00
1.00000000e+00
1.00000000e+00
1.00000000e+00
-1.00000000e+00
1.00000000e+00
-1.00000000e+00
-1.00000000e+00
-1.00000000e+00
1.00000000e+00
-1.00000000e+00
-1.00000000e+00
-1.00000000e+00
-1.00000000e+00
-1.00000000e+00
-1.00000000e+00
1.00000000e+00
1.00000000e+00
1.00000000e+00
1.00000000e+00
-1.00000000e+00
-1.00000000e+00
-1.00000000e+00
-1.00000000e+00
1.00000000e+00
1.00000000e+00
1.00000000e+00
1.00000000e+00
-1.00000000e+00
-1.00000000e+00
-1.00000000e+00
1.00000000e+00
-1.00000000e+00
1.00000000e+00
1.00000000e+00
-1.00000000e+00
-1.00000000e+00
-1.00000000e+00
-1.00000000e+00
-1.00000000e+00
-1.00000000e+00
1.00000000e+00
-1.00000000e+00
-1.00000000e+00
1.00000000e+00
-1.00000000e+00
-1.00000000e+00
-1.00000000e+00
-1.00000000e+00
-1.00000000e+00
-1.00000000e+00
1.00000000e+00
-1.00000000e+00
-1.00000000e+00
-1.00000000e+00
-1.00000000e+00
-1.00000000e+00
-1.00000000e+00
-1.00000000e+00
1.00000000e+00
1.00000000e+00
-1.00000000e+00
-1.00000000e+00
1.00000000e+00
-1.00000000e+00
-1.00000000e+00
-1.00000000e+00
-1.00000000e+00
1.00000000e+00
-1.00000000e+00
-1.00000000e+00
-1.00000000e+00
-1.00000000e+00
-1.00000000e+00
-1.00000000e+00
-1.00000000e+00
-1.00000000e+00
1.00000000e+00
1.00000000e+00
1.00000000e+00
1.00000000e+00
1.00000000e+00
1.00000000e+00
-1.00000000e+00
-1.00000000e+00
-1.00000000e+00
-1.00000000e+00
1.00000000e+00
-1.00000000e+00
1.00000000e+00
1.00000000e+00
-1.00000000e+00
1.00000000e+00
-1.00000000e+00
-1.00000000e+00
-1.00000000e+00
1.00000000e+00
1.00000000e+00
-1.00000000e+00
1.00000000e+00
1.00000000e+00
-1.00000000e+00
1.00000000e+00
-1.00000000e+00
1.00000000e+00
1.00000000e+00
-1.00000000e+00
-1.00000000e+00
1.00000000e+00
-1.00000000e+00
-1.00000000e+00
-1.00000000e+00
-1.00000000e+00
1.00000000e+00
1.00000000e+00
1.00000000e+00
1.00000000e+00
-1.00000000e+00
-1.00000000e+00
-1.00000000e+00
-1.00000000e+00
1.00000000e+00
1.00000000e+00
1.00000000e+00
-1.00000000e+00
-1.00000000e+00
1.00000000e+00
-1.00000000e+00
1.00000000e+00
1.00000000e+00
-1.00000000e+00
-1.00000000e+00
-1.00000000e+00
1.00000000e+00
1.00000000e+00
-1.00000000e+00
1.00000000e+00
-1.00000000e+00
-1.00000000e+00
-1.00000000e+00
-1.00000000e+00
-1.00000000e+00
1.00000000e+00
1.00000000e+00
1.00000000e+00
1.00000000e+00
-1.00000000e+00
-1.00000000e+00
1.00000000e+00
1.00000000e+00
1.00000000e+00
1.00000000e+00
-1.00000000e+00
-1.00000000e+00
-1.00000000e+00
-1.00000000e+00
-1.00000000e+00
1.00000000e+00
1.00000000e+00
1.00000000e+00
1.00000000e+00
-1.00000000e+00
-1.00000000e+00
-1.00000000e+00
-1.00000000e+00
-1.00000000e+00
-1.00000000e+00
1.00000000e+00
1.00000000e+00
1.00000000e+00
-1.00000000e+00
-1.00000000e+00
-1.00000000e+00
-1.00000000e+00
-1.00000000e+00
-1.00000000e+00
1.00000000e+00
1.00000000e+00
-1.00000000e+00
-1.00000000e+00
-1.00000000e+00
-1.00000000e+00
-1.00000000e+00
-1.00000000e+00
-1.00000000e+00
-1.00000000e+00
1.00000000e+00
1.00000000e+00
1.00000000e+00
1.00000000e+00
1.00000000e+00
-1.00000000e+00
1.00000000e+00
1.00000000e+00
-1.00000000e+00
-1.00000000e+00
-1.00000000e+00
-1.00000000e+00
-1.00000000e+00
-1.00000000e+00
-1.00000000e+00
-1.00000000e+00
-1.00000000e+00
-1.00000000e+00
1.00000000e+00
1.00000000e+00
-1.00000000e+00
-1.00000000e+00
-1.00000000e+00
-1.00000000e+00
-1.00000000e+00
-1.00000000e+00
1.00000000e+00
1.00000000e+00
-1.00000000e+00
-1.00000000e+00
1.00000000e+00
-1.00000000e+00
-1.00000000e+00
-1.00000000e+00
-1.00000000e+00
-1.00000000e+00
1.00000000e+00
1.00000000e+00
-1.00000000e+00
-1.00000000e+00
1.00000000e+00
-1.00000000e+00
-1.00000000e+00
1.00000000e+00
-1.00000000e+00
1.00000000e+00
1.00000000e+00
-1.00000000e+00
1.00000000e+00
-1.00000000e+00
-1.00000000e+00
-1.00000000e+00
-1.00000000e+00
1.00000000e+00
1.00000000e+00
1.00000000e+00
1.00000000e+00
1.00000000e+00
1.00000000e+00
-1.00000000e+00
-1.00000000e+00
1.00000000e+00
-1.00000000e+00
1.00000000e+00
1.00000000e+00
1.00000000e+00
1.00000000e+00
1.00000000e+00
1.00000000e+00
1.00000000e+00
1.00000000e+00
1.00000000e+00
-1.00000000e+00
-1.00000000e+00
1.00000000e+00
1.00000000e+00
1.00000000e+00
-1.00000000e+00
-1.00000000e+00
1.00000000e+00
1.00000000e+00
1.00000000e+00
-1.00000000e+00
-1.00000000e+00
1.00000000e+00
-1.00000000e+00
1.00000000e+00
1.00000000e+00
1.00000000e+00
-1.00000000e+00
-1.00000000e+00
-1.00000000e+00
-1.00000000e+00
-1.00000000e+00
-1.00000000e+00
-1.00000000e+00
-1.00000000e+00
-1.00000000e+00
-1.00000000e+00
1.00000000e+00
-1.00000000e+00
1.00000000e+00
1.00000000e+00
1.00000000e+00
1.00000000e+00
1.00000000e+00
1.00000000e+00
-1.00000000e+00
-1.00000000e+00
-1.00000000e+00
-1.00000000e+00
-1.00000000e+00
-1.00000000e+00
-1.00000000e+00
-1.00000000e+00
-1.00000000e+00
-1.00000000e+00
1.00000000e+00
1.00000000e+00
1.00000000e+00
1.00000000e+00
1.00000000e+00
1.00000000e+00
1.00000000e+00
1.00000000e+00
1.00000000e+00
1.00000000e+00
1.00000000e+00
1.00000000e+00
1.00000000e+00
1.00000000e+00
1.00000000e+00
1.00000000e+00
1.00000000e+00
1.00000000e+00
1.00000000e+00
-1.00000000e+00
-1.00000000e+00
-1.00000000e+00
-1.00000000e+00
-1.00000000e+00
1.00000000e+00
-1.00000000e+00
-1.00000000e+00
1.00000000e+00
-1.00000000e+00
-1.00000000e+00
1.00000000e+00
1.00000000e+00
1.00000000e+00
1.00000000e+00
1.00000000e+00
1.00000000e+00
-1.00000000e+00
1.00000000e+00
-1.00000000e+00
-1.00000000e+00
-1.00000000e+00
1.00000000e+00
1.00000000e+00
1.00000000e+00
1.00000000e+00
1.00000000e+00
-1.00000000e+00
-1.00000000e+00
-1.00000000e+00
-1.00000000e+00
1.00000000e+00
1.00000000e+00
-1.00000000e+00
-1.00000000e+00
1.00000000e+00
-1.00000000e+00
-1.00000000e+00
1.00000000e+00
1.00000000e+00
1.00000000e+00
-1.00000000e+00
-1.00000000e+00
1.00000000e+00
1.00000000e+00
-1.00000000e+00
1.00000000e+00
1.00000000e+00
1.00000000e+00
1.00000000e+00
1.00000000e+00
1.00000000e+00
-1.00000000e+00
1.00000000e+00
1.00000000e+00
-1.00000000e+00
-1.00000000e+00
-1.00000000e+00
-1.00000000e+00
-1.00000000e+00
1.00000000e+00
-1.00000000e+00
-1.00000000e+00
-1.00000000e+00
1.00000000e+00
1.00000000e+00
1.00000000e+00
1.00000000e+00
1.00000000e+00
1.00000000e+00
1.00000000e+00
1.00000000e+00
-1.00000000e+00
-1.00000000e+00
-1.00000000e+00
-1.00000000e+00
1.00000000e+00
1.00000000e+00
-1.00000000e+00
-1.00000000e+00
-1.00000000e+00
-1.00000000e+00
-1.00000000e+00
1.00000000e+00
1.00000000e+00
1.00000000e+00
1.00000000e+00
-1.00000000e+00
1.00000000e+00
1.00000000e+00
1.00000000e+00
-1.00000000e+00
-1.00000000e+00
-1.00000000e+00
-1.00000000e+00
-1.00000000e+00
1.00000000e+00
-1.00000000e+00
1.00000000e+00
-1.00000000e+00
1.00000000e+00
1.00000000e+00
1.00000000e+00
-1.00000000e+00
1.00000000e+00
-1.00000000e+00
-1.00000000e+00
1.00000000e+00
1.00000000e+00
1.00000000e+00
1.00000000e+00
1.00000000e+00
1.00000000e+00
1.00000000e+00
-1.00000000e+00
1.00000000e+00
1.00000000e+00
-1.00000000e+00
-1.00000000e+00
-1.00000000e+00
1.00000000e+00
1.00000000e+00
1.00000000e+00
-1.00000000e+00
1.00000000e+00
-1.00000000e+00
1.00000000e+00
-1.00000000e+00
-1.00000000e+00
-1.00000000e+00
1.00000000e+00
1.00000000e+00
1.00000000e+00
1.00000000e+00
-1.00000000e+00
-1.00000000e+00
-1.00000000e+00
-1.00000000e+00
-1.00000000e+00
1.00000000e+00
1.00000000e+00
1.00000000e+00
1.00000000e+00
-1.00000000e+00
1.00000000e+00
-1.00000000e+00
-1.00000000e+00
-1.00000000e+00
1.00000000e+00
-1.00000000e+00
1.00000000e+00
-1.00000000e+00
-1.00000000e+00
-1.00000000e+00
1.00000000e+00
1.00000000e+00
1.00000000e+00
1.00000000e+00
1.00000000e+00
1.00000000e+00
1.00000000e+00
1.00000000e+00
-1.00000000e+00
-1.00000000e+00
-1.00000000e+00
-1.00000000e+00
1.00000000e+00
1.00000000e+00
1.00000000e+00
1.00000000e+00
-1.00000000e+00
-1.00000000e+00
-1.00000000e+00
-1.00000000e+00
-1.00000000e+00
1.00000000e+00
1.00000000e+00
1.00000000e+00
1.00000000e+00
1.00000000e+00
-1.00000000e+00
-1.00000000e+00
-1.00000000e+00
-1.00000000e+00
1.00000000e+00
1.00000000e+00
-1.00000000e+00
-1.00000000e+00
-1.00000000e+00
1.00000000e+00
1.00000000e+00
-1.00000000e+00
1.00000000e+00
1.00000000e+00
1.00000000e+00
1.00000000e+00
1.00000000e+00
-1.00000000e+00
-1.00000000e+00
-1.00000000e+00
-1.00000000e+00
-1.00000000e+00
1.00000000e+00
1.00000000e+00
1.00000000e+00
1.00000000e+00
1.00000000e+00
-1.00000000e+00
1.00000000e+00
1.00000000e+00
1.00000000e+00
1.00000000e+00
-1.00000000e+00
1.00000000e+00
1.00000000e+00
-1.00000000e+00
-1.00000000e+00
1.00000000e+00
1.00000000e+00
-1.00000000e+00
1.00000000e+00
1.00000000e+00
-1.00000000e+00
1.00000000e+00
-1.00000000e+00
-1.00000000e+00
1.00000000e+00
1.00000000e+00
-1.00000000e+00
-1.00000000e+00
1.00000000e+00
-1.00000000e+00
1.00000000e+00
1.00000000e+00
1.00000000e+00
-1.00000000e+00
-1.00000000e+00
1.00000000e+00
-1.00000000e+00
-1.00000000e+00
-1.00000000e+00
-1.00000000e+00
-1.00000000e+00
-1.00000000e+00
1.00000000e+00
1.00000000e+00
-1.00000000e+00
1.00000000e+00
1.00000000e+00
1.00000000e+00
1.00000000e+00
1.00000000e+00
1.00000000e+00
-1.00000000e+00
-1.00000000e+00
1.00000000e+00
-1.00000000e+00
1.00000000e+00
-1.00000000e+00
1.00000000e+00
-1.00000000e+00
-1.00000000e+00
-1.00000000e+00
-1.00000000e+00
1.00000000e+00
1.00000000e+00
1.00000000e+00
1.00000000e+00
1.00000000e+00
1.00000000e+00
1.00000000e+00
-1.00000000e+00
-1.00000000e+00
-1.00000000e+00
-1.00000000e+00
1.00000000e+00
-1.00000000e+00
-1.00000000e+00
-1.00000000e+00
-1.00000000e+00
1.00000000e+00
1.00000000e+00
-1.00000000e+00
1.00000000e+00
-1.00000000e+00
-1.00000000e+00
1.00000000e+00
-1.00000000e+00
-1.00000000e+00
1.00000000e+00
1.00000000e+00
1.00000000e+00
-1.00000000e+00
1.00000000e+00
1.00000000e+00
-1.00000000e+00
-1.00000000e+00
1.00000000e+00
-1.00000000e+00
-1.00000000e+00
-1.00000000e+00
1.00000000e+00
-1.00000000e+00
-1.00000000e+00
-1.00000000e+00
-1.00000000e+00
-1.00000000e+00
1.00000000e+00
1.00000000e+00
-1.00000000e+00
-1.00000000e+00
1.00000000e+00
-1.00000000e+00
-1.00000000e+00
-1.00000000e+00
-1.00000000e+00
1.00000000e+00
1.00000000e+00
1.00000000e+00
-1.00000000e+00
1.00000000e+00
1.00000000e+00
-1.00000000e+00
1.00000000e+00
1.00000000e+00
-1.00000000e+00
-1.00000000e+00
-1.00000000e+00
-1.00000000e+00
-1.00000000e+00
1.00000000e+00
-1.00000000e+00
1.00000000e+00
1.00000000e+00
-1.00000000e+00
-1.00000000e+00
-1.00000000e+00
-1.00000000e+00
-1.00000000e+00
-1.00000000e+00
-1.00000000e+00
-1.00000000e+00
-1.00000000e+00
1.00000000e+00
-1.00000000e+00
-1.00000000e+00
1.00000000e+00
-1.00000000e+00
-1.00000000e+00
-1.00000000e+00
1.00000000e+00
1.00000000e+00
1.00000000e+00
-1.00000000e+00
-1.00000000e+00
-1.00000000e+00
-1.00000000e+00
-1.00000000e+00
1.00000000e+00
-1.00000000e+00
-1.00000000e+00
1.00000000e+00
1.00000000e+00
1.00000000e+00
1.00000000e+00
-1.00000000e+00
1.00000000e+00
-1.00000000e+00
-1.00000000e+00
-1.00000000e+00
1.00000000e+00
1.00000000e+00
-1.00000000e+00
1.00000000e+00
-1.00000000e+00
1.00000000e+00
-1.00000000e+00
-1.00000000e+00
-1.00000000e+00
1.00000000e+00
1.00000000e+00
1.00000000e+00
1.00000000e+00
-1.00000000e+00
-1.00000000e+00
1.00000000e+00
1.00000000e+00
-1.00000000e+00
-1.00000000e+00
1.00000000e+00
-1.00000000e+00
-1.00000000e+00
-1.00000000e+00
-1.00000000e+00
-1.00000000e+00
1.00000000e+00
1.00000000e+00
-1.00000000e+00
-1.00000000e+00
-1.00000000e+00
-1.00000000e+00
1.00000000e+00
1.00000000e+00
1.00000000e+00
-1.00000000e+00
-1.00000000e+00
1.00000000e+00
1.00000000e+00
1.00000000e+00
-1.00000000e+00
-1.00000000e+00
-1.00000000e+00
1.00000000e+00
-1.00000000e+00
1.00000000e+00
1.00000000e+00
1.00000000e+00
1.00000000e+00
1.00000000e+00
1.00000000e+00
1.00000000e+00
1.00000000e+00
-1.00000000e+00
-1.00000000e+00
1.00000000e+00
1.00000000e+00
1.00000000e+00
-1.00000000e+00
-1.00000000e+00
-1.00000000e+00
1.00000000e+00
-1.00000000e+00
-1.00000000e+00
1.00000000e+00
-1.00000000e+00
-1.00000000e+00
1.00000000e+00
1.00000000e+00
-1.00000000e+00
1.00000000e+00
-1.00000000e+00
-1.00000000e+00
1.00000000e+00
1.00000000e+00
1.00000000e+00
1.00000000e+00
1.00000000e+00
-1.00000000e+00
1.00000000e+00
-1.00000000e+00
-1.00000000e+00
1.00000000e+00
1.00000000e+00
1.00000000e+00
1.00000000e+00
-1.00000000e+00
-1.00000000e+00
1.00000000e+00
-1.00000000e+00
-1.00000000e+00
1.00000000e+00
1.00000000e+00
1.00000000e+00
-1.00000000e+00
1.00000000e+00
-1.00000000e+00
-1.00000000e+00
1.00000000e+00
-1.00000000e+00
1.00000000e+00
1.00000000e+00
-1.00000000e+00
-1.00000000e+00
-1.00000000e+00
1.00000000e+00
-1.00000000e+00
-1.00000000e+00
1.00000000e+00
1.00000000e+00
1.00000000e+00
1.00000000e+00
1.00000000e+00
-1.00000000e+00
-1.00000000e+00
1.00000000e+00
-1.00000000e+00
-1.00000000e+00
1.00000000e+00
1.00000000e+00
-1.00000000e+00
1.00000000e+00
-1.00000000e+00
-1.00000000e+00
1.00000000e+00
1.00000000e+00
-1.00000000e+00
1.00000000e+00
1.00000000e+00
1.00000000e+00
1.00000000e+00
-1.00000000e+00
-1.00000000e+00
1.00000000e+00
1.00000000e+00
-1.00000000e+00
1.00000000e+00
1.00000000e+00
-1.00000000e+00
-1.00000000e+00
-1.00000000e+00
-1.00000000e+00
-1.00000000e+00
-1.00000000e+00
1.00000000e+00
-1.00000000e+00
1.00000000e+00
1.00000000e+00
1.00000000e+00
-1.00000000e+00
-1.00000000e+00
-1.00000000e+00
1.00000000e+00
1.00000000e+00
1.00000000e+00
-1.00000000e+00
-1.00000000e+00
-1.00000000e+00
-1.00000000e+00
-1.00000000e+00
-1.00000000e+00
1.00000000e+00
1.00000000e+00
-1.00000000e+00
1.00000000e+00
1.00000000e+00
-1.00000000e+00
-1.00000000e+00
-1.00000000e+00
-1.00000000e+00
-1.00000000e+00
-1.00000000e+00
1.00000000e+00
-1.00000000e+00
-1.00000000e+00
-1.00000000e+00
-1.00000000e+00
-1.00000000e+00
1.00000000e+00
1.00000000e+00
-1.00000000e+00
-1.00000000e+00
-1.00000000e+00
-1.00000000e+00
-1.00000000e+00
-1.00000000e+00
-1.00000000e+00
1.00000000e+00
-1.00000000e+00
-1.00000000e+00
1.00000000e+00
1.00000000e+00
1.00000000e+00
-1.00000000e+00
-1.00000000e+00
-1.00000000e+00
-1.00000000e+00
-1.00000000e+00
1.00000000e+00
-1.00000000e+00
-1.00000000e+00
1.00000000e+00
-1.00000000e+00
1.00000000e+00
1.00000000e+00
-1.00000000e+00
-1.00000000e+00
1.00000000e+00
-1.00000000e+00
1.00000000e+00
1.00000000e+00
1.00000000e+00
-1.00000000e+00
-1.00000000e+00
1.00000000e+00
-1.00000000e+00
-1.00000000e+00
1.00000000e+00
1.00000000e+00
1.00000000e+00
-1.00000000e+00
-1.00000000e+00
1.00000000e+00
-1.00000000e+00
-1.00000000e+00
1.00000000e+00
-1.00000000e+00
1.00000000e+00
1.00000000e+00
1.00000000e+00
-1.00000000e+00
-1.00000000e+00
-1.00000000e+00
1.00000000e+00
-1.00000000e+00
-1.00000000e+00
1.00000000e+00
-1.00000000e+00
-1.00000000e+00
-1.00000000e+00
-1.00000000e+00
1.00000000e+00
-1.00000000e+00
-1.00000000e+00
1.00000000e+00
-1.00000000e+00
-1.00000000e+00
-1.00000000e+00
-1.00000000e+00
-1.00000000e+00
-1.00000000e+00
-1.00000000e+00
-1.00000000e+00
1.00000000e+00
1.00000000e+00
1.00000000e+00
-1.00000000e+00
-1.00000000e+00
-1.00000000e+00
-1.00000000e+00
-1.00000000e+00
-1.00000000e+00
1.00000000e+00
1.00000000e+00
1.00000000e+00
-1.00000000e+00
-1.00000000e+00
-1.00000000e+00
1.00000000e+00
-1.00000000e+00
-1.00000000e+00
-1.00000000e+00
-1.00000000e+00
1.00000000e+00
-1.00000000e+00
-1.00000000e+00
-1.00000000e+00
1.00000000e+00
1.00000000e+00
1.00000000e+00
-1.00000000e+00
1.00000000e+00
-1.00000000e+00
-1.00000000e+00
-1.00000000e+00
1.00000000e+00
-1.00000000e+00
-1.00000000e+00
1.00000000e+00
1.00000000e+00
-1.00000000e+00
1.00000000e+00
-1.00000000e+00
-1.00000000e+00
1.00000000e+00
1.00000000e+00
-1.00000000e+00
1.00000000e+00
-1.00000000e+00
1.00000000e+00
-1.00000000e+00
1.00000000e+00
-1.00000000e+00
-1.00000000e+00
-1.00000000e+00
-1.00000000e+00
1.00000000e+00
1.00000000e+00
-1.00000000e+00
-1.00000000e+00
-1.00000000e+00
-1.00000000e+00
-1.00000000e+00
1.00000000e+00
-1.00000000e+00
-1.00000000e+00
1.00000000e+00
-1.00000000e+00
1.00000000e+00
-1.00000000e+00
-1.00000000e+00
-1.00000000e+00
1.00000000e+00
1.00000000e+00
-1.00000000e+00
-1.00000000e+00
1.00000000e+00
1.00000000e+00
-1.00000000e+00
1.00000000e+00
-1.00000000e+00
-1.00000000e+00
1.00000000e+00
1.00000000e+00
-1.00000000e+00
1.00000000e+00
1.00000000e+00
-1.00000000e+00
1.00000000e+00
1.00000000e+00
-1.00000000e+00
-1.00000000e+00
1.00000000e+00
-1.00000000e+00
-1.00000000e+00
-1.00000000e+00
-1.00000000e+00
-1.00000000e+00
-1.00000000e+00
1.00000000e+00
1.00000000e+00
1.00000000e+00
1.00000000e+00
-1.00000000e+00
-1.00000000e+00
-1.00000000e+00
-1.00000000e+00
-1.00000000e+00
-1.00000000e+00
-1.00000000e+00
1.00000000e+00
1.00000000e+00
1.00000000e+00
1.00000000e+00
-1.00000000e+00
1.00000000e+00
-1.00000000e+00
-1.00000000e+00
-1.00000000e+00
-1.00000000e+00
-1.00000000e+00
-1.00000000e+00
1.00000000e+00
-1.00000000e+00
1.00000000e+00
1.00000000e+00
-1.00000000e+00
-1.00000000e+00
-1.00000000e+00
-1.00000000e+00
-1.00000000e+00
-1.00000000e+00
1.00000000e+00
-1.00000000e+00
-1.00000000e+00
-1.00000000e+00
-1.00000000e+00
1.00000000e+00
1.00000000e+00
1.00000000e+00
-1.00000000e+00
-1.00000000e+00
1.00000000e+00
-1.00000000e+00
-1.00000000e+00
1.00000000e+00
-1.00000000e+00
-1.00000000e+00
1.00000000e+00
1.00000000e+00
-1.00000000e+00
-1.00000000e+00
-1.00000000e+00
-1.00000000e+00
-1.00000000e+00
1.00000000e+00
-1.00000000e+00
1.00000000e+00
1.00000000e+00
-1.00000000e+00
-1.00000000e+00
-1.00000000e+00
-1.00000000e+00
-1.00000000e+00
1.00000000e+00
1.00000000e+00
1.00000000e+00
1.00000000e+00
-1.00000000e+00
1.00000000e+00
1.00000000e+00
-1.00000000e+00
-1.00000000e+00
1.00000000e+00
-1.00000000e+00
1.00000000e+00
1.00000000e+00
1.00000000e+00
1.00000000e+00
1.00000000e+00
1.00000000e+00
-1.00000000e+00
1.00000000e+00
1.00000000e+00
1.00000000e+00
1.00000000e+00
1.00000000e+00
1.00000000e+00
1.00000000e+00
-1.00000000e+00
-1.00000000e+00
1.00000000e+00
-1.00000000e+00
-1.00000000e+00
1.00000000e+00
1.00000000e+00
1.00000000e+00
1.00000000e+00
-1.00000000e+00
1.00000000e+00
1.00000000e+00
-1.00000000e+00
-1.00000000e+00
-1.00000000e+00
-1.00000000e+00
1.00000000e+00
1.00000000e+00
-1.00000000e+00
-1.00000000e+00
-1.00000000e+00
1.00000000e+00
1.00000000e+00
1.00000000e+00
1.00000000e+00
1.00000000e+00
1.00000000e+00
-1.00000000e+00
-1.00000000e+00
-1.00000000e+00
-1.00000000e+00
-1.00000000e+00
-1.00000000e+00
-1.00000000e+00
1.00000000e+00
1.00000000e+00
-1.00000000e+00
-1.00000000e+00
-1.00000000e+00
1.00000000e+00
1.00000000e+00
1.00000000e+00
1.00000000e+00
1.00000000e+00
1.00000000e+00
1.00000000e+00
-1.00000000e+00
1.00000000e+00
1.00000000e+00
1.00000000e+00
1.00000000e+00
1.00000000e+00
-1.00000000e+00
-1.00000000e+00
1.00000000e+00
1.00000000e+00
-1.00000000e+00
-1.00000000e+00
-1.00000000e+00
-1.00000000e+00
1.00000000e+00
-1.00000000e+00
-1.00000000e+00
-1.00000000e+00
1.00000000e+00
1.00000000e+00
1.00000000e+00
1.00000000e+00
1.00000000e+00
-1.00000000e+00
1.00000000e+00
1.00000000e+00
-1.00000000e+00
-1.00000000e+00
1.00000000e+00
-1.00000000e+00
-1.00000000e+00
1.00000000e+00
1.00000000e+00
1.00000000e+00
1.00000000e+00
-1.00000000e+00
-1.00000000e+00
1.00000000e+00
-1.00000000e+00
-1.00000000e+00
1.00000000e+00
1.00000000e+00
1.00000000e+00
1.00000000e+00
-1.00000000e+00
1.00000000e+00
1.00000000e+00
1.00000000e+00
1.00000000e+00
1.00000000e+00
1.00000000e+00
1.00000000e+00
-1.00000000e+00
1.00000000e+00
1.00000000e+00
-1.00000000e+00
1.00000000e+00
1.00000000e+00
1.00000000e+00
1.00000000e+00
1.00000000e+00
1.00000000e+00
1.00000000e+00
1.00000000e+00
1.00000000e+00
-1.00000000e+00
1.00000000e+00
1.00000000e+00
1.00000000e+00
1.00000000e+00
-1.00000000e+00
1.00000000e+00
1.00000000e+00
1.00000000e+00
-1.00000000e+00
-1.00000000e+00
1.00000000e+00
1.00000000e+00
1.00000000e+00
1.00000000e+00
-1.00000000e+00
-1.00000000e+00
1.00000000e+00
-1.00000000e+00
-1.00000000e+00
1.00000000e+00
1.00000000e+00
-1.00000000e+00
1.00000000e+00
-1.00000000e+00
1.00000000e+00
1.00000000e+00
1.00000000e+00
-1.00000000e+00
-1.00000000e+00
1.00000000e+00
1.00000000e+00
1.00000000e+00
1.00000000e+00
-1.00000000e+00
1.00000000e+00
-1.00000000e+00
-1.00000000e+00
1.00000000e+00
-1.00000000e+00
1.00000000e+00
1.00000000e+00
1.00000000e+00
-1.00000000e+00
-1.00000000e+00
1.00000000e+00
1.00000000e+00
1.00000000e+00
-1.00000000e+00
1.00000000e+00
-1.00000000e+00
1.00000000e+00
1.00000000e+00
1.00000000e+00
1.00000000e+00
1.00000000e+00
1.00000000e+00
1.00000000e+00
1.00000000e+00
-1.00000000e+00
-1.00000000e+00
1.00000000e+00
1.00000000e+00
-1.00000000e+00
-1.00000000e+00
1.00000000e+00
1.00000000e+00
1.00000000e+00
1.00000000e+00
-1.00000000e+00
1.00000000e+00
-1.00000000e+00
-1.00000000e+00
-1.00000000e+00
1.00000000e+00
1.00000000e+00
1.00000000e+00
1.00000000e+00
1.00000000e+00
1.00000000e+00
1.00000000e+00
-1.00000000e+00
-1.00000000e+00
1.00000000e+00
1.00000000e+00
1.00000000e+00
1.00000000e+00
-1.00000000e+00
-1.00000000e+00
1.00000000e+00
-1.00000000e+00
-1.00000000e+00
-1.00000000e+00
1.00000000e+00
1.00000000e+00
1.00000000e+00
1.00000000e+00
-1.00000000e+00
1.00000000e+00
1.00000000e+00
1.00000000e+00
1.00000000e+00
1.00000000e+00
1.00000000e+00
-1.00000000e+00
1.00000000e+00
-1.00000000e+00
-1.00000000e+00
-1.00000000e+00
-1.00000000e+00
-1.00000000e+00
1.00000000e+00
1.00000000e+00
1.00000000e+00
1.00000000e+00
-1.00000000e+00
-1.00000000e+00
-1.00000000e+00
-1.00000000e+00
-1.00000000e+00
1.00000000e+00
1.00000000e+00
1.00000000e+00
1.00000000e+00
-1.00000000e+00
1.00000000e+00
-1.00000000e+00
-1.00000000e+00
1.00000000e+00
1.00000000e+00
-1.00000000e+00
-1.00000000e+00
1.00000000e+00
1.00000000e+00
-1.00000000e+00
-1.00000000e+00
-1.00000000e+00
-1.00000000e+00
1.00000000e+00
1.00000000e+00
1.00000000e+00
1.00000000e+00
1.00000000e+00
1.00000000e+00
-1.00000000e+00
-1.00000000e+00
1.00000000e+00
1.00000000e+00
1.00000000e+00
1.00000000e+00
1.00000000e+00
1.00000000e+00
1.00000000e+00
1.00000000e+00
1.00000000e+00
1.00000000e+00
1.00000000e+00
1.00000000e+00
1.00000000e+00
1.00000000e+00
-1.00000000e+00
-1.00000000e+00
-1.00000000e+00
-1.00000000e+00
-1.00000000e+00
-1.00000000e+00
-1.00000000e+00
1.00000000e+00
-1.00000000e+00
1.00000000e+00
1.00000000e+00
-1.00000000e+00
-1.00000000e+00
1.00000000e+00
-1.00000000e+00
1.00000000e+00
1.00000000e+00
-1.00000000e+00
-1.00000000e+00
1.00000000e+00
-1.00000000e+00
1.00000000e+00
1.00000000e+00
-1.00000000e+00
-1.00000000e+00
1.00000000e+00
-1.00000000e+00
-1.00000000e+00
1.00000000e+00
-1.00000000e+00
-1.00000000e+00
1.00000000e+00
1.00000000e+00
1.00000000e+00
-1.00000000e+00
1.00000000e+00
1.00000000e+00
-1.00000000e+00
1.00000000e+00
1.00000000e+00
-1.00000000e+00
-1.00000000e+00
-1.00000000e+00
1.00000000e+00
1.00000000e+00
-1.00000000e+00
1.00000000e+00
-1.00000000e+00
-1.00000000e+00
-1.00000000e+00
1.00000000e+00
1.00000000e+00
1.00000000e+00
-1.00000000e+00
-1.00000000e+00
-1.00000000e+00
1.00000000e+00
-1.00000000e+00
-1.00000000e+00
-1.00000000e+00
-1.00000000e+00
1.00000000e+00
-1.00000000e+00
1.00000000e+00
1.00000000e+00
-1.00000000e+00
1.00000000e+00
1.00000000e+00
-1.00000000e+00
-1.00000000e+00
-1.00000000e+00
1.00000000e+00
-1.00000000e+00
1.00000000e+00
-1.00000000e+00
-1.00000000e+00
1.00000000e+00
-1.00000000e+00
-1.00000000e+00
-1.00000000e+00
1.00000000e+00
1.00000000e+00
-1.00000000e+00
1.00000000e+00
-1.00000000e+00
-1.00000000e+00
-1.00000000e+00
-1.00000000e+00
1.00000000e+00
-1.00000000e+00
1.00000000e+00
1.00000000e+00
-1.00000000e+00
1.00000000e+00
1.00000000e+00
-1.00000000e+00
-1.00000000e+00
1.00000000e+00
1.00000000e+00
1.00000000e+00
1.00000000e+00
-1.00000000e+00
1.00000000e+00
1.00000000e+00
1.00000000e+00
-1.00000000e+00
-1.00000000e+00
-1.00000000e+00
-1.00000000e+00
-1.00000000e+00
1.00000000e+00
1.00000000e+00
1.00000000e+00
1.00000000e+00
1.00000000e+00
-1.00000000e+00
-1.00000000e+00
-1.00000000e+00
-1.00000000e+00
-1.00000000e+00
-1.00000000e+00
-1.00000000e+00
-1.00000000e+00
-1.00000000e+00
1.00000000e+00
-1.00000000e+00
-1.00000000e+00
1.00000000e+00
-1.00000000e+00
-1.00000000e+00
-1.00000000e+00
-1.00000000e+00
1.00000000e+00
1.00000000e+00
-1.00000000e+00
-1.00000000e+00
1.00000000e+00
-1.00000000e+00
1.00000000e+00
1.00000000e+00
-1.00000000e+00
-1.00000000e+00
1.00000000e+00
-1.00000000e+00
1.00000000e+00
1.00000000e+00
-1.00000000e+00
1.00000000e+00
1.00000000e+00
-1.00000000e+00
-1.00000000e+00
1.00000000e+00
-1.00000000e+00
1.00000000e+00
1.00000000e+00
-1.00000000e+00
1.00000000e+00
1.00000000e+00
-1.00000000e+00
-1.00000000e+00
1.00000000e+00
-1.00000000e+00
-1.00000000e+00
1.00000000e+00
-1.00000000e+00
1.00000000e+00
1.00000000e+00
-1.00000000e+00
-1.00000000e+00
1.00000000e+00
-1.00000000e+00
-1.00000000e+00
1.00000000e+00
1.00000000e+00
-1.00000000e+00
1.00000000e+00
1.00000000e+00
1.00000000e+00
-1.00000000e+00
-1.00000000e+00
-1.00000000e+00
-1.00000000e+00
-1.00000000e+00
-1.00000000e+00
-1.00000000e+00
-1.00000000e+00
1.00000000e+00
-1.00000000e+00
1.00000000e+00
1.00000000e+00
-1.00000000e+00
-1.00000000e+00
-1.00000000e+00
1.00000000e+00
-1.00000000e+00
-1.00000000e+00
-1.00000000e+00
-1.00000000e+00
-1.00000000e+00
1.00000000e+00
-1.00000000e+00
1.00000000e+00
1.00000000e+00
-1.00000000e+00
-1.00000000e+00
-1.00000000e+00
1.00000000e+00
1.00000000e+00
1.00000000e+00
-1.00000000e+00
1.00000000e+00
1.00000000e+00
-1.00000000e+00
1.00000000e+00
1.00000000e+00
1.00000000e+00
1.00000000e+00
1.00000000e+00
1.00000000e+00
1.00000000e+00
1.00000000e+00
-1.00000000e+00
-1.00000000e+00
1.00000000e+00
-1.00000000e+00
1.00000000e+00
1.00000000e+00
-1.00000000e+00
1.00000000e+00
1.00000000e+00
-1.00000000e+00
-1.00000000e+00
1.00000000e+00
1.00000000e+00
1.00000000e+00
1.00000000e+00
1.00000000e+00
1.00000000e+00
1.00000000e+00
-1.00000000e+00
-1.00000000e+00
-1.00000000e+00
1.00000000e+00
1.00000000e+00
1.00000000e+00
-1.00000000e+00
1.00000000e+00
1.00000000e+00
-1.00000000e+00
-1.00000000e+00
1.00000000e+00
-1.00000000e+00
-1.00000000e+00
1.00000000e+00
-1.00000000e+00
-1.00000000e+00
1.00000000e+00
-1.00000000e+00
1.00000000e+00
-1.00000000e+00
1.00000000e+00
1.00000000e+00
-1.00000000e+00
-1.00000000e+00
-1.00000000e+00
1.00000000e+00
-1.00000000e+00
-1.00000000e+00
1.00000000e+00
-1.00000000e+00
1.00000000e+00
1.00000000e+00
-1.00000000e+00
-1.00000000e+00
1.00000000e+00
-1.00000000e+00
-1.00000000e+00
1.00000000e+00
1.00000000e+00
-1.00000000e+00
1.00000000e+00
-1.00000000e+00
-1.00000000e+00
1.00000000e+00
-1.00000000e+00
-1.00000000e+00
1.00000000e+00
-1.00000000e+00
-1.00000000e+00
1.00000000e+00
-1.00000000e+00
-1.00000000e+00
-1.00000000e+00
1.00000000e+00
1.00000000e+00
1.00000000e+00
1.00000000e+00
-1.00000000e+00
1.00000000e+00
-1.00000000e+00
-1.00000000e+00
-1.00000000e+00
1.00000000e+00
-1.00000000e+00
1.00000000e+00
1.00000000e+00
-1.00000000e+00
-1.00000000e+00
-1.00000000e+00
1.00000000e+00
1.00000000e+00
1.00000000e+00
-1.00000000e+00
-1.00000000e+00
1.00000000e+00
1.00000000e+00
1.00000000e+00
-1.00000000e+00
-1.00000000e+00
-1.00000000e+00
-1.00000000e+00
-1.00000000e+00
-1.00000000e+00
1.00000000e+00
1.00000000e+00
1.00000000e+00
-1.00000000e+00
1.00000000e+00
1.00000000e+00
1.00000000e+00
1.00000000e+00
1.00000000e+00
-1.00000000e+00
-1.00000000e+00
1.00000000e+00
1.00000000e+00
1.00000000e+00
1.00000000e+00
-1.00000000e+00
1.00000000e+00
1.00000000e+00
1.00000000e+00
1.00000000e+00
1.00000000e+00
-1.00000000e+00
-1.00000000e+00
-1.00000000e+00
1.00000000e+00
1.00000000e+00
1.00000000e+00
1.00000000e+00
1.00000000e+00
1.00000000e+00
-1.00000000e+00
-1.00000000e+00
-1.00000000e+00
1.00000000e+00
1.00000000e+00
1.00000000e+00
-1.00000000e+00
-1.00000000e+00
-1.00000000e+00
1.00000000e+00
-1.00000000e+00
-1.00000000e+00
-1.00000000e+00
-1.00000000e+00
-1.00000000e+00
-1.00000000e+00
1.00000000e+00
-1.00000000e+00
1.00000000e+00
1.00000000e+00
1.00000000e+00
-1.00000000e+00
-1.00000000e+00
-1.00000000e+00
-1.00000000e+00
-1.00000000e+00
-1.00000000e+00
-1.00000000e+00
-1.00000000e+00
1.00000000e+00
-1.00000000e+00
-1.00000000e+00
1.00000000e+00
1.00000000e+00
-1.00000000e+00
-1.00000000e+00
1.00000000e+00
1.00000000e+00
1.00000000e+00
-1.00000000e+00
-1.00000000e+00
-1.00000000e+00
-1.00000000e+00
1.00000000e+00
1.00000000e+00
1.00000000e+00
1.00000000e+00
1.00000000e+00
-1.00000000e+00
-1.00000000e+00
-1.00000000e+00
-1.00000000e+00
-1.00000000e+00
-1.00000000e+00
-1.00000000e+00
-1.00000000e+00
-1.00000000e+00
1.00000000e+00
-1.00000000e+00
-1.00000000e+00
-1.00000000e+00
-1.00000000e+00
-1.00000000e+00
-1.00000000e+00
-1.00000000e+00
-1.00000000e+00
1.00000000e+00
1.00000000e+00
1.00000000e+00
1.00000000e+00
-1.00000000e+00
1.00000000e+00
-1.00000000e+00
-1.00000000e+00
-1.00000000e+00
1.00000000e+00
-1.00000000e+00
1.00000000e+00
-1.00000000e+00
1.00000000e+00
-1.00000000e+00
1.00000000e+00
1.00000000e+00
1.00000000e+00
-1.00000000e+00
-1.00000000e+00
-1.00000000e+00
1.00000000e+00
1.00000000e+00
-1.00000000e+00
1.00000000e+00
-1.00000000e+00
1.00000000e+00
-1.00000000e+00
1.00000000e+00
-1.00000000e+00
-1.00000000e+00
-1.00000000e+00
1.00000000e+00
1.00000000e+00
1.00000000e+00
1.00000000e+00
1.00000000e+00
1.00000000e+00
1.00000000e+00
1.00000000e+00
-1.00000000e+00
1.00000000e+00
-1.00000000e+00
-1.00000000e+00
-1.00000000e+00
1.00000000e+00
1.00000000e+00
-1.00000000e+00
1.00000000e+00
1.00000000e+00
1.00000000e+00
-1.00000000e+00
-1.00000000e+00
-1.00000000e+00
-1.00000000e+00
-1.00000000e+00
-1.00000000e+00
1.00000000e+00
1.00000000e+00
1.00000000e+00
1.00000000e+00
-1.00000000e+00
1.00000000e+00
-1.00000000e+00
-1.00000000e+00
1.00000000e+00
-1.00000000e+00
-1.00000000e+00
-1.00000000e+00
1.00000000e+00
1.00000000e+00
1.00000000e+00
-1.00000000e+00
1.00000000e+00
-1.00000000e+00
-1.00000000e+00
-1.00000000e+00
-1.00000000e+00
1.00000000e+00
-1.00000000e+00
1.00000000e+00
1.00000000e+00
1.00000000e+00
1.00000000e+00
1.00000000e+00
1.00000000e+00
1.00000000e+00
1.00000000e+00
1.00000000e+00
1.00000000e+00
1.00000000e+00
1.00000000e+00
1.00000000e+00
1.00000000e+00
-1.00000000e+00
1.00000000e+00
-1.00000000e+00
-1.00000000e+00
-1.00000000e+00
1.00000000e+00
1.00000000e+00
1.00000000e+00
-1.00000000e+00
1.00000000e+00
1.00000000e+00
1.00000000e+00
1.00000000e+00
1.00000000e+00
1.00000000e+00
1.00000000e+00
1.00000000e+00
-1.00000000e+00
-1.00000000e+00
-1.00000000e+00
1.00000000e+00
1.00000000e+00
1.00000000e+00
-1.00000000e+00
-1.00000000e+00
-1.00000000e+00
1.00000000e+00
1.00000000e+00
-1.00000000e+00
-1.00000000e+00
1.00000000e+00
1.00000000e+00
-1.00000000e+00
-1.00000000e+00
-1.00000000e+00
1.00000000e+00
1.00000000e+00
1.00000000e+00
1.00000000e+00
-1.00000000e+00
1.00000000e+00
1.00000000e+00
-1.00000000e+00
-1.00000000e+00
-1.00000000e+00
-1.00000000e+00
1.00000000e+00
-1.00000000e+00
-1.00000000e+00
-1.00000000e+00
1.00000000e+00
1.00000000e+00
1.00000000e+00
-1.00000000e+00
-1.00000000e+00
-1.00000000e+00
-1.00000000e+00
-1.00000000e+00
-1.00000000e+00
1.00000000e+00
1.00000000e+00
1.00000000e+00
1.00000000e+00
-1.00000000e+00
-1.00000000e+00
-1.00000000e+00
-1.00000000e+00
-1.00000000e+00
-1.00000000e+00
-1.00000000e+00
-1.00000000e+00
1.00000000e+00
1.00000000e+00
1.00000000e+00
-1.00000000e+00
-1.00000000e+00
1.00000000e+00
-1.00000000e+00
-1.00000000e+00
-1.00000000e+00
-1.00000000e+00
1.00000000e+00
1.00000000e+00
1.00000000e+00
-1.00000000e+00
1.00000000e+00
-1.00000000e+00
-1.00000000e+00
1.00000000e+00
-1.00000000e+00
-1.00000000e+00
1.00000000e+00
-1.00000000e+00
1.00000000e+00
1.00000000e+00
1.00000000e+00
1.00000000e+00
1.00000000e+00
1.00000000e+00
-1.00000000e+00
-1.00000000e+00
1.00000000e+00
1.00000000e+00
-1.00000000e+00
1.00000000e+00
1.00000000e+00
-1.00000000e+00
-1.00000000e+00
-1.00000000e+00
-1.00000000e+00
1.00000000e+00
1.00000000e+00
1.00000000e+00
1.00000000e+00
1.00000000e+00
1.00000000e+00
1.00000000e+00
-1.00000000e+00
-1.00000000e+00
1.00000000e+00
-1.00000000e+00
-1.00000000e+00
-1.00000000e+00
-1.00000000e+00
-1.00000000e+00
-1.00000000e+00
-1.00000000e+00
-1.00000000e+00
1.00000000e+00
1.00000000e+00
1.00000000e+00
-1.00000000e+00
1.00000000e+00
-1.00000000e+00
-1.00000000e+00
-1.00000000e+00
-1.00000000e+00
-1.00000000e+00
-1.00000000e+00
1.00000000e+00
1.00000000e+00
1.00000000e+00
1.00000000e+00
1.00000000e+00
-1.00000000e+00
1.00000000e+00
1.00000000e+00
1.00000000e+00
1.00000000e+00
1.00000000e+00
1.00000000e+00
1.00000000e+00
-1.00000000e+00
1.00000000e+00
1.00000000e+00
-1.00000000e+00
1.00000000e+00
1.00000000e+00
1.00000000e+00
1.00000000e+00
1.00000000e+00
-1.00000000e+00
-1.00000000e+00
-1.00000000e+00
-1.00000000e+00
-1.00000000e+00
1.00000000e+00
1.00000000e+00
1.00000000e+00
1.00000000e+00
1.00000000e+00
1.00000000e+00
1.00000000e+00
1.00000000e+00
1.00000000e+00
-1.00000000e+00
1.00000000e+00
1.00000000e+00
1.00000000e+00
1.00000000e+00
1.00000000e+00
-1.00000000e+00
1.00000000e+00
-1.00000000e+00
-1.00000000e+00
-1.00000000e+00
-1.00000000e+00
-1.00000000e+00
1.00000000e+00
1.00000000e+00
1.00000000e+00
1.00000000e+00
1.00000000e+00
1.00000000e+00
-1.00000000e+00
-1.00000000e+00
-1.00000000e+00
1.00000000e+00
1.00000000e+00
-1.00000000e+00
-1.00000000e+00
1.00000000e+00
1.00000000e+00
1.00000000e+00
1.00000000e+00
1.00000000e+00
1.00000000e+00
-1.00000000e+00
1.00000000e+00
-1.00000000e+00
-1.00000000e+00
1.00000000e+00
1.00000000e+00
1.00000000e+00
1.00000000e+00
-1.00000000e+00
-1.00000000e+00
1.00000000e+00
-1.00000000e+00
1.00000000e+00
1.00000000e+00
1.00000000e+00
-1.00000000e+00
1.00000000e+00
1.00000000e+00
-1.00000000e+00
1.00000000e+00
-1.00000000e+00
-1.00000000e+00
1.00000000e+00
-1.00000000e+00
1.00000000e+00
-1.00000000e+00
-1.00000000e+00
1.00000000e+00
1.00000000e+00
1.00000000e+00
-1.00000000e+00
1.00000000e+00
-1.00000000e+00
1.00000000e+00
1.00000000e+00
-1.00000000e+00
-1.00000000e+00
-1.00000000e+00
1.00000000e+00
-1.00000000e+00
-1.00000000e+00
1.00000000e+00
1.00000000e+00
1.00000000e+00
-1.00000000e+00
1.00000000e+00
-1.00000000e+00
-1.00000000e+00
1.00000000e+00
-1.00000000e+00
1.00000000e+00
1.00000000e+00
1.00000000e+00
1.00000000e+00
-1.00000000e+00
-1.00000000e+00
-1.00000000e+00
1.00000000e+00
1.00000000e+00
1.00000000e+00
1.00000000e+00
1.00000000e+00
1.00000000e+00
1.00000000e+00
1.00000000e+00
-1.00000000e+00
-1.00000000e+00
1.00000000e+00
1.00000000e+00
1.00000000e+00
1.00000000e+00
-1.00000000e+00
-1.00000000e+00
1.00000000e+00
-1.00000000e+00
-1.00000000e+00
1.00000000e+00
-1.00000000e+00
-1.00000000e+00
-1.00000000e+00
-1.00000000e+00
-1.00000000e+00
1.00000000e+00
1.00000000e+00
1.00000000e+00
1.00000000e+00
-1.00000000e+00
-1.00000000e+00
-1.00000000e+00
-1.00000000e+00
-1.00000000e+00
1.00000000e+00
-1.00000000e+00
-1.00000000e+00
1.00000000e+00
1.00000000e+00
1.00000000e+00
1.00000000e+00
1.00000000e+00
1.00000000e+00
1.00000000e+00
-1.00000000e+00
-1.00000000e+00
1.00000000e+00
1.00000000e+00
1.00000000e+00
1.00000000e+00
-1.00000000e+00
-1.00000000e+00
1.00000000e+00
1.00000000e+00
-1.00000000e+00
1.00000000e+00
1.00000000e+00
1.00000000e+00
1.00000000e+00
1.00000000e+00
1.00000000e+00
-1.00000000e+00
-1.00000000e+00
1.00000000e+00
-1.00000000e+00
-1.00000000e+00
-1.00000000e+00
1.00000000e+00
-1.00000000e+00
-1.00000000e+00
1.00000000e+00
-1.00000000e+00
1.00000000e+00
1.00000000e+00
1.00000000e+00
1.00000000e+00
1.00000000e+00
-1.00000000e+00
1.00000000e+00
1.00000000e+00
-1.00000000e+00
-1.00000000e+00
-1.00000000e+00
-1.00000000e+00
-1.00000000e+00
-1.00000000e+00
1.00000000e+00
1.00000000e+00
1.00000000e+00
-1.00000000e+00
-1.00000000e+00
-1.00000000e+00
1.00000000e+00
1.00000000e+00
1.00000000e+00
1.00000000e+00
1.00000000e+00
-1.00000000e+00
-1.00000000e+00
-1.00000000e+00
-1.00000000e+00
1.00000000e+00
1.00000000e+00
-1.00000000e+00
-1.00000000e+00
-1.00000000e+00
1.00000000e+00
1.00000000e+00
-1.00000000e+00
-1.00000000e+00
1.00000000e+00
1.00000000e+00
1.00000000e+00
1.00000000e+00
1.00000000e+00
-1.00000000e+00
-1.00000000e+00
-1.00000000e+00
-1.00000000e+00
-1.00000000e+00
-1.00000000e+00
-1.00000000e+00
1.00000000e+00
1.00000000e+00
1.00000000e+00
1.00000000e+00
1.00000000e+00
1.00000000e+00
1.00000000e+00
1.00000000e+00
1.00000000e+00
-1.00000000e+00
-1.00000000e+00
1.00000000e+00
-1.00000000e+00
-1.00000000e+00
-1.00000000e+00
-1.00000000e+00
-1.00000000e+00
-1.00000000e+00
1.00000000e+00
1.00000000e+00
1.00000000e+00
1.00000000e+00
1.00000000e+00
1.00000000e+00
1.00000000e+00
1.00000000e+00
1.00000000e+00
1.00000000e+00
1.00000000e+00
-1.00000000e+00
-1.00000000e+00
-1.00000000e+00
-1.00000000e+00
1.00000000e+00
1.00000000e+00
1.00000000e+00
1.00000000e+00
1.00000000e+00
-1.00000000e+00
-1.00000000e+00
-1.00000000e+00
-1.00000000e+00
-1.00000000e+00
-1.00000000e+00
-1.00000000e+00
-1.00000000e+00
-1.00000000e+00
-1.00000000e+00
1.00000000e+00
1.00000000e+00
1.00000000e+00
1.00000000e+00
1.00000000e+00
-1.00000000e+00
1.00000000e+00
1.00000000e+00
-1.00000000e+00
-1.00000000e+00
-1.00000000e+00
-1.00000000e+00
1.00000000e+00
1.00000000e+00
-1.00000000e+00
1.00000000e+00
1.00000000e+00
-1.00000000e+00
-1.00000000e+00
-1.00000000e+00
-1.00000000e+00
-1.00000000e+00
-1.00000000e+00
-1.00000000e+00
-1.00000000e+00
-1.00000000e+00
-1.00000000e+00
1.00000000e+00
1.00000000e+00
1.00000000e+00
1.00000000e+00
-1.00000000e+00
-1.00000000e+00
1.00000000e+00
-1.00000000e+00
1.00000000e+00
1.00000000e+00
1.00000000e+00
1.00000000e+00
1.00000000e+00
1.00000000e+00
1.00000000e+00
1.00000000e+00
1.00000000e+00
1.00000000e+00
-1.00000000e+00
-1.00000000e+00
-1.00000000e+00
1.00000000e+00
1.00000000e+00
1.00000000e+00
-1.00000000e+00
-1.00000000e+00
1.00000000e+00
1.00000000e+00
-1.00000000e+00
-1.00000000e+00
-1.00000000e+00
1.00000000e+00
1.00000000e+00
1.00000000e+00
1.00000000e+00
-1.00000000e+00
-1.00000000e+00
-1.00000000e+00
-1.00000000e+00
-1.00000000e+00
-1.00000000e+00
-1.00000000e+00
1.00000000e+00
-1.00000000e+00
-1.00000000e+00
1.00000000e+00
1.00000000e+00
1.00000000e+00
-1.00000000e+00
1.00000000e+00
-1.00000000e+00
1.00000000e+00
1.00000000e+00
-1.00000000e+00
-1.00000000e+00
-1.00000000e+00
-1.00000000e+00
-1.00000000e+00
1.00000000e+00
-1.00000000e+00
-1.00000000e+00
1.00000000e+00
-1.00000000e+00
1.00000000e+00
1.00000000e+00
-1.00000000e+00
-1.00000000e+00
-1.00000000e+00
-1.00000000e+00
-1.00000000e+00
1.00000000e+00
1.00000000e+00
1.00000000e+00
1.00000000e+00
1.00000000e+00
-1.00000000e+00
-1.00000000e+00
-1.00000000e+00
1.00000000e+00
1.00000000e+00
1.00000000e+00
-1.00000000e+00
1.00000000e+00
-1.00000000e+00
1.00000000e+00
1.00000000e+00
-1.00000000e+00
1.00000000e+00
1.00000000e+00
1.00000000e+00
-1.00000000e+00
-1.00000000e+00
-1.00000000e+00
-1.00000000e+00
1.00000000e+00
1.00000000e+00
-1.00000000e+00
1.00000000e+00
-1.00000000e+00
-1.00000000e+00
-1.00000000e+00
-1.00000000e+00
1.00000000e+00
-1.00000000e+00
-1.00000000e+00
1.00000000e+00
-1.00000000e+00
-1.00000000e+00
-1.00000000e+00
-1.00000000e+00
-1.00000000e+00
1.00000000e+00
1.00000000e+00
-1.00000000e+00
1.00000000e+00
1.00000000e+00
-1.00000000e+00
-1.00000000e+00
-1.00000000e+00
-1.00000000e+00
1.00000000e+00
1.00000000e+00
1.00000000e+00
-1.00000000e+00
-1.00000000e+00
-1.00000000e+00
-1.00000000e+00
-1.00000000e+00
-1.00000000e+00
-1.00000000e+00
1.00000000e+00
1.00000000e+00
-1.00000000e+00
-1.00000000e+00
-1.00000000e+00
-1.00000000e+00
-1.00000000e+00
-1.00000000e+00
-1.00000000e+00
1.00000000e+00
1.00000000e+00
1.00000000e+00
-1.00000000e+00
1.00000000e+00
-1.00000000e+00
-1.00000000e+00
-1.00000000e+00
-1.00000000e+00
1.00000000e+00
-1.00000000e+00
1.00000000e+00
-1.00000000e+00
1.00000000e+00
-1.00000000e+00
1.00000000e+00
-1.00000000e+00
1.00000000e+00
1.00000000e+00
1.00000000e+00
1.00000000e+00
1.00000000e+00
-1.00000000e+00
-1.00000000e+00
-1.00000000e+00
-1.00000000e+00
1.00000000e+00
1.00000000e+00
1.00000000e+00
1.00000000e+00
1.00000000e+00
-1.00000000e+00
-1.00000000e+00
-1.00000000e+00
-1.00000000e+00
1.00000000e+00
1.00000000e+00
1.00000000e+00
1.00000000e+00
1.00000000e+00
1.00000000e+00
-1.00000000e+00
-1.00000000e+00
-1.00000000e+00
-1.00000000e+00
-1.00000000e+00
-1.00000000e+00
1.00000000e+00
1.00000000e+00
-1.00000000e+00
1.00000000e+00
-1.00000000e+00
1.00000000e+00
-1.00000000e+00
1.00000000e+00
-1.00000000e+00
-1.00000000e+00
1.00000000e+00
1.00000000e+00
1.00000000e+00
-1.00000000e+00
1.00000000e+00
1.00000000e+00
-1.00000000e+00
-1.00000000e+00
1.00000000e+00
1.00000000e+00
1.00000000e+00
1.00000000e+00
1.00000000e+00
1.00000000e+00
-1.00000000e+00
1.00000000e+00
1.00000000e+00
-1.00000000e+00
1.00000000e+00
-1.00000000e+00
-1.00000000e+00
-1.00000000e+00
-1.00000000e+00
1.00000000e+00
-1.00000000e+00
-1.00000000e+00
1.00000000e+00
1.00000000e+00
1.00000000e+00
1.00000000e+00
-1.00000000e+00
1.00000000e+00
-1.00000000e+00
1.00000000e+00
1.00000000e+00
-1.00000000e+00
1.00000000e+00
-1.00000000e+00
-1.00000000e+00
1.00000000e+00
-1.00000000e+00
-1.00000000e+00
-1.00000000e+00
-1.00000000e+00
-1.00000000e+00
-1.00000000e+00
-1.00000000e+00
1.00000000e+00
1.00000000e+00
1.00000000e+00
1.00000000e+00
-1.00000000e+00
-1.00000000e+00
1.00000000e+00
1.00000000e+00
-1.00000000e+00
1.00000000e+00
1.00000000e+00
1.00000000e+00
1.00000000e+00
1.00000000e+00
1.00000000e+00
-1.00000000e+00
-1.00000000e+00
1.00000000e+00
-1.00000000e+00
-1.00000000e+00
1.00000000e+00
-1.00000000e+00
-1.00000000e+00
-1.00000000e+00
-1.00000000e+00
-1.00000000e+00
-1.00000000e+00
1.00000000e+00
-1.00000000e+00
1.00000000e+00
-1.00000000e+00
-1.00000000e+00
-1.00000000e+00
-1.00000000e+00
-1.00000000e+00
-1.00000000e+00
1.00000000e+00
-1.00000000e+00
1.00000000e+00
1.00000000e+00
1.00000000e+00
1.00000000e+00
-1.00000000e+00
-1.00000000e+00
-1.00000000e+00
-1.00000000e+00
1.00000000e+00
1.00000000e+00
1.00000000e+00
1.00000000e+00
1.00000000e+00
-1.00000000e+00
1.00000000e+00
-1.00000000e+00
-1.00000000e+00
1.00000000e+00
-1.00000000e+00
-1.00000000e+00
-1.00000000e+00
-1.00000000e+00
-1.00000000e+00
-1.00000000e+00
1.00000000e+00
1.00000000e+00
-1.00000000e+00
1.00000000e+00
-1.00000000e+00
-1.00000000e+00
-1.00000000e+00
1.00000000e+00
1.00000000e+00
-1.00000000e+00
1.00000000e+00
1.00000000e+00
-1.00000000e+00
-1.00000000e+00
1.00000000e+00
1.00000000e+00
-1.00000000e+00
-1.00000000e+00
-1.00000000e+00
-1.00000000e+00
-1.00000000e+00
1.00000000e+00
-1.00000000e+00
1.00000000e+00
1.00000000e+00
-1.00000000e+00
1.00000000e+00
-1.00000000e+00
-1.00000000e+00
1.00000000e+00
1.00000000e+00
1.00000000e+00
1.00000000e+00
1.00000000e+00
-1.00000000e+00
-1.00000000e+00
1.00000000e+00
-1.00000000e+00
-1.00000000e+00
1.00000000e+00
-1.00000000e+00
-1.00000000e+00
-1.00000000e+00
1.00000000e+00
1.00000000e+00
-1.00000000e+00
-1.00000000e+00
1.00000000e+00
1.00000000e+00
-1.00000000e+00
1.00000000e+00
1.00000000e+00
-1.00000000e+00
-1.00000000e+00
1.00000000e+00
-1.00000000e+00
-1.00000000e+00
-1.00000000e+00
1.00000000e+00
1.00000000e+00
1.00000000e+00
-1.00000000e+00
-1.00000000e+00
-1.00000000e+00
-1.00000000e+00
1.00000000e+00
-1.00000000e+00
1.00000000e+00
-1.00000000e+00
1.00000000e+00
-1.00000000e+00
-1.00000000e+00
-1.00000000e+00
1.00000000e+00
1.00000000e+00
-1.00000000e+00
-1.00000000e+00
-1.00000000e+00
-1.00000000e+00
1.00000000e+00
-1.00000000e+00
-1.00000000e+00
1.00000000e+00
1.00000000e+00
-1.00000000e+00
-1.00000000e+00
-1.00000000e+00
-1.00000000e+00
-1.00000000e+00
-1.00000000e+00
1.00000000e+00
1.00000000e+00
1.00000000e+00
1.00000000e+00
-1.00000000e+00
-1.00000000e+00
-1.00000000e+00
1.00000000e+00
1.00000000e+00
-1.00000000e+00
1.00000000e+00
-1.00000000e+00
1.00000000e+00
1.00000000e+00
1.00000000e+00
1.00000000e+00
1.00000000e+00
-1.00000000e+00
-1.00000000e+00
1.00000000e+00
1.00000000e+00
1.00000000e+00
1.00000000e+00
-1.00000000e+00
-1.00000000e+00
1.00000000e+00
-1.00000000e+00
-1.00000000e+00
1.00000000e+00
1.00000000e+00
1.00000000e+00
1.00000000e+00
-1.00000000e+00
-1.00000000e+00
-1.00000000e+00
1.00000000e+00
1.00000000e+00
1.00000000e+00
-1.00000000e+00
1.00000000e+00
1.00000000e+00
-1.00000000e+00
1.00000000e+00
-1.00000000e+00
-1.00000000e+00
-1.00000000e+00
1.00000000e+00
-1.00000000e+00
-1.00000000e+00
-1.00000000e+00
-1.00000000e+00
-1.00000000e+00
1.00000000e+00
-1.00000000e+00
-1.00000000e+00
1.00000000e+00
1.00000000e+00
1.00000000e+00
-1.00000000e+00
-1.00000000e+00
-1.00000000e+00
1.00000000e+00
1.00000000e+00
-1.00000000e+00
1.00000000e+00
1.00000000e+00
1.00000000e+00
-1.00000000e+00
-1.00000000e+00
-1.00000000e+00
1.00000000e+00
1.00000000e+00
1.00000000e+00
1.00000000e+00
1.00000000e+00
-1.00000000e+00
-1.00000000e+00
-1.00000000e+00
-1.00000000e+00
-1.00000000e+00
1.00000000e+00
1.00000000e+00
-1.00000000e+00
-1.00000000e+00
-1.00000000e+00
-1.00000000e+00
-1.00000000e+00
-1.00000000e+00
1.00000000e+00
1.00000000e+00
1.00000000e+00
-1.00000000e+00
1.00000000e+00
-1.00000000e+00
-1.00000000e+00
-1.00000000e+00
-1.00000000e+00
-1.00000000e+00
-1.00000000e+00
-1.00000000e+00
1.00000000e+00
-1.00000000e+00
-1.00000000e+00
-1.00000000e+00
-1.00000000e+00
-1.00000000e+00
-1.00000000e+00
-1.00000000e+00
-1.00000000e+00
-1.00000000e+00
1.00000000e+00
1.00000000e+00
-1.00000000e+00
-1.00000000e+00
-1.00000000e+00
1.00000000e+00
1.00000000e+00
-1.00000000e+00
1.00000000e+00
1.00000000e+00
1.00000000e+00
-1.00000000e+00
-1.00000000e+00
-1.00000000e+00
-1.00000000e+00
-1.00000000e+00
-1.00000000e+00
1.00000000e+00
1.00000000e+00
1.00000000e+00
-1.00000000e+00
-1.00000000e+00
-1.00000000e+00
-1.00000000e+00
1.00000000e+00
-1.00000000e+00
-1.00000000e+00
-1.00000000e+00
-1.00000000e+00
1.00000000e+00
1.00000000e+00
-1.00000000e+00
1.00000000e+00
-1.00000000e+00
-1.00000000e+00
-1.00000000e+00
-1.00000000e+00
-1.00000000e+00
1.00000000e+00
1.00000000e+00
1.00000000e+00
1.00000000e+00
1.00000000e+00
1.00000000e+00
-1.00000000e+00
-1.00000000e+00
-1.00000000e+00
-1.00000000e+00
-1.00000000e+00
-1.00000000e+00
-1.00000000e+00
-1.00000000e+00
-1.00000000e+00
-1.00000000e+00
-1.00000000e+00
-1.00000000e+00
-1.00000000e+00
1.00000000e+00
1.00000000e+00
-1.00000000e+00
1.00000000e+00
1.00000000e+00
-1.00000000e+00
-1.00000000e+00
-1.00000000e+00
-1.00000000e+00
-1.00000000e+00
-1.00000000e+00
-1.00000000e+00
1.00000000e+00
-1.00000000e+00
-1.00000000e+00
1.00000000e+00
1.00000000e+00
1.00000000e+00
1.00000000e+00
-1.00000000e+00
-1.00000000e+00
-1.00000000e+00
-1.00000000e+00
-1.00000000e+00
-1.00000000e+00
-1.00000000e+00
-1.00000000e+00
-1.00000000e+00
-1.00000000e+00
-1.00000000e+00
-1.00000000e+00
1.00000000e+00
1.00000000e+00
1.00000000e+00
1.00000000e+00
-1.00000000e+00
-1.00000000e+00
-1.00000000e+00
1.00000000e+00
-1.00000000e+00
1.00000000e+00
1.00000000e+00
-1.00000000e+00
-1.00000000e+00
-1.00000000e+00
-1.00000000e+00
-1.00000000e+00
-1.00000000e+00
1.00000000e+00
1.00000000e+00
-1.00000000e+00
1.00000000e+00
-1.00000000e+00
-1.00000000e+00
1.00000000e+00
1.00000000e+00
1.00000000e+00
1.00000000e+00
1.00000000e+00
-1.00000000e+00
1.00000000e+00
-1.00000000e+00
-1.00000000e+00
-1.00000000e+00
-1.00000000e+00
-1.00000000e+00
1.00000000e+00
1.00000000e+00
-1.00000000e+00
1.00000000e+00
-1.00000000e+00
-1.00000000e+00
-1.00000000e+00
-1.00000000e+00
-1.00000000e+00
1.00000000e+00
-1.00000000e+00
-1.00000000e+00
1.00000000e+00
-1.00000000e+00
-1.00000000e+00
-1.00000000e+00
-1.00000000e+00
-1.00000000e+00
-1.00000000e+00
-1.00000000e+00
-1.00000000e+00
1.00000000e+00
-1.00000000e+00
-1.00000000e+00
1.00000000e+00
1.00000000e+00
1.00000000e+00
-1.00000000e+00
1.00000000e+00
-1.00000000e+00
1.00000000e+00
-1.00000000e+00
1.00000000e+00
1.00000000e+00
-1.00000000e+00
-1.00000000e+00
-1.00000000e+00
1.00000000e+00
1.00000000e+00
1.00000000e+00
-1.00000000e+00
1.00000000e+00
1.00000000e+00
1.00000000e+00
1.00000000e+00
1.00000000e+00
1.00000000e+00
1.00000000e+00
-1.00000000e+00
-1.00000000e+00
-1.00000000e+00
-1.00000000e+00
-1.00000000e+00
-1.00000000e+00
-1.00000000e+00
1.00000000e+00
1.00000000e+00
1.00000000e+00
1.00000000e+00
-1.00000000e+00
-1.00000000e+00
-1.00000000e+00
-1.00000000e+00
1.00000000e+00
1.00000000e+00
-1.00000000e+00
-1.00000000e+00
1.00000000e+00
-1.00000000e+00
-1.00000000e+00
-1.00000000e+00
1.00000000e+00
-1.00000000e+00
1.00000000e+00
1.00000000e+00
-1.00000000e+00
1.00000000e+00
1.00000000e+00
1.00000000e+00
1.00000000e+00
1.00000000e+00
1.00000000e+00
1.00000000e+00
-1.00000000e+00
-1.00000000e+00
-1.00000000e+00
-1.00000000e+00
-1.00000000e+00
-1.00000000e+00
1.00000000e+00
1.00000000e+00
1.00000000e+00
-1.00000000e+00
-1.00000000e+00
1.00000000e+00
1.00000000e+00
-1.00000000e+00
-1.00000000e+00
1.00000000e+00
-1.00000000e+00
1.00000000e+00
1.00000000e+00
-1.00000000e+00
-1.00000000e+00
-1.00000000e+00
-1.00000000e+00
-1.00000000e+00
-1.00000000e+00
-1.00000000e+00
1.00000000e+00
-1.00000000e+00
-1.00000000e+00
-1.00000000e+00
-1.00000000e+00
-1.00000000e+00
-1.00000000e+00
-1.00000000e+00
-1.00000000e+00
1.00000000e+00
-1.00000000e+00
-1.00000000e+00
1.00000000e+00
-1.00000000e+00
-1.00000000e+00
-1.00000000e+00
1.00000000e+00
-1.00000000e+00
-1.00000000e+00
1.00000000e+00
-1.00000000e+00
-1.00000000e+00
1.00000000e+00
-1.00000000e+00
-1.00000000e+00
1.00000000e+00
-1.00000000e+00
-1.00000000e+00
1.00000000e+00
1.00000000e+00
1.00000000e+00
-1.00000000e+00
1.00000000e+00
1.00000000e+00
1.00000000e+00
-1.00000000e+00
1.00000000e+00
1.00000000e+00
-1.00000000e+00
-1.00000000e+00
-1.00000000e+00
-1.00000000e+00
-1.00000000e+00
-1.00000000e+00
-1.00000000e+00
1.00000000e+00
-1.00000000e+00
1.00000000e+00
1.00000000e+00
-1.00000000e+00
1.00000000e+00
-1.00000000e+00
1.00000000e+00
-1.00000000e+00
-1.00000000e+00
1.00000000e+00
-1.00000000e+00
-1.00000000e+00
1.00000000e+00
1.00000000e+00
1.00000000e+00
1.00000000e+00
-1.00000000e+00
-1.00000000e+00
-1.00000000e+00
-1.00000000e+00
-1.00000000e+00
-1.00000000e+00
-1.00000000e+00
-1.00000000e+00
1.00000000e+00
1.00000000e+00
1.00000000e+00
1.00000000e+00
1.00000000e+00
1.00000000e+00
1.00000000e+00
-1.00000000e+00
-1.00000000e+00
1.00000000e+00
-1.00000000e+00
1.00000000e+00
1.00000000e+00
1.00000000e+00
1.00000000e+00
1.00000000e+00
-1.00000000e+00
1.00000000e+00
-1.00000000e+00
-1.00000000e+00
1.00000000e+00
-1.00000000e+00
1.00000000e+00
1.00000000e+00
-1.00000000e+00
-1.00000000e+00
1.00000000e+00
1.00000000e+00
1.00000000e+00
-1.00000000e+00
1.00000000e+00
1.00000000e+00
1.00000000e+00
-1.00000000e+00
-1.00000000e+00
-1.00000000e+00
-1.00000000e+00
-1.00000000e+00
1.00000000e+00
-1.00000000e+00
1.00000000e+00
1.00000000e+00
-1.00000000e+00
-1.00000000e+00
1.00000000e+00
-1.00000000e+00
1.00000000e+00
1.00000000e+00
1.00000000e+00
1.00000000e+00
-1.00000000e+00
-1.00000000e+00
-1.00000000e+00
-1.00000000e+00
1.00000000e+00
1.00000000e+00
-1.00000000e+00
1.00000000e+00
-1.00000000e+00
-1.00000000e+00
-1.00000000e+00
-1.00000000e+00
-1.00000000e+00
1.00000000e+00
1.00000000e+00
-1.00000000e+00
1.00000000e+00
1.00000000e+00
1.00000000e+00
1.00000000e+00
-1.00000000e+00
-1.00000000e+00
-1.00000000e+00
-1.00000000e+00
1.00000000e+00
-1.00000000e+00
-1.00000000e+00
1.00000000e+00
1.00000000e+00
1.00000000e+00
-1.00000000e+00
1.00000000e+00
-1.00000000e+00
1.00000000e+00
-1.00000000e+00
-1.00000000e+00
1.00000000e+00
-1.00000000e+00
-1.00000000e+00
1.00000000e+00
-1.00000000e+00
1.00000000e+00
1.00000000e+00
-1.00000000e+00
1.00000000e+00
-1.00000000e+00
-1.00000000e+00
-1.00000000e+00
-1.00000000e+00
-1.00000000e+00
1.00000000e+00
1.00000000e+00
1.00000000e+00
-1.00000000e+00
1.00000000e+00
-1.00000000e+00
-1.00000000e+00
-1.00000000e+00
-1.00000000e+00
1.00000000e+00
1.00000000e+00
-1.00000000e+00
1.00000000e+00
-1.00000000e+00
1.00000000e+00
-1.00000000e+00
1.00000000e+00
1.00000000e+00
-1.00000000e+00
-1.00000000e+00
1.00000000e+00
-1.00000000e+00
1.00000000e+00
-1.00000000e+00
-1.00000000e+00
-1.00000000e+00
1.00000000e+00
-1.00000000e+00
-1.00000000e+00
1.00000000e+00
1.00000000e+00
1.00000000e+00
-1.00000000e+00
1.00000000e+00
-1.00000000e+00
-1.00000000e+00
1.00000000e+00
1.00000000e+00
-1.00000000e+00
1.00000000e+00
-1.00000000e+00
-1.00000000e+00
-1.00000000e+00
-1.00000000e+00
1.00000000e+00
1.00000000e+00
1.00000000e+00
-1.00000000e+00
-1.00000000e+00
-1.00000000e+00
-1.00000000e+00
-1.00000000e+00
1.00000000e+00
-1.00000000e+00
-1.00000000e+00
1.00000000e+00
-1.00000000e+00
-1.00000000e+00
1.00000000e+00
-1.00000000e+00
-1.00000000e+00
-1.00000000e+00
1.00000000e+00
1.00000000e+00
1.00000000e+00
1.00000000e+00
-1.00000000e+00
-1.00000000e+00
1.00000000e+00
1.00000000e+00
-1.00000000e+00
-1.00000000e+00
-1.00000000e+00
1.00000000e+00
1.00000000e+00
1.00000000e+00
1.00000000e+00
-1.00000000e+00
-1.00000000e+00
-1.00000000e+00
-1.00000000e+00
-1.00000000e+00
-1.00000000e+00
-1.00000000e+00
-1.00000000e+00
-1.00000000e+00
1.00000000e+00
-1.00000000e+00
1.00000000e+00
-1.00000000e+00
-1.00000000e+00
-1.00000000e+00
-1.00000000e+00
-1.00000000e+00
1.00000000e+00
-1.00000000e+00
-1.00000000e+00
1.00000000e+00
1.00000000e+00
-1.00000000e+00
1.00000000e+00
1.00000000e+00
1.00000000e+00
-1.00000000e+00
1.00000000e+00
1.00000000e+00
-1.00000000e+00
-1.00000000e+00
1.00000000e+00
-1.00000000e+00
-1.00000000e+00
1.00000000e+00
1.00000000e+00
1.00000000e+00
-1.00000000e+00
-1.00000000e+00
-1.00000000e+00
-1.00000000e+00
1.00000000e+00
-1.00000000e+00
1.00000000e+00
1.00000000e+00
1.00000000e+00
-1.00000000e+00
-1.00000000e+00
1.00000000e+00
-1.00000000e+00
1.00000000e+00
1.00000000e+00
1.00000000e+00
1.00000000e+00
1.00000000e+00
-1.00000000e+00
-1.00000000e+00
-1.00000000e+00
-1.00000000e+00
1.00000000e+00
-1.00000000e+00
-1.00000000e+00
1.00000000e+00
1.00000000e+00
1.00000000e+00
1.00000000e+00
1.00000000e+00
-1.00000000e+00
1.00000000e+00
-1.00000000e+00
-1.00000000e+00
-1.00000000e+00
-1.00000000e+00
-1.00000000e+00
1.00000000e+00
-1.00000000e+00
-1.00000000e+00
-1.00000000e+00
1.00000000e+00
1.00000000e+00
1.00000000e+00
1.00000000e+00
1.00000000e+00
1.00000000e+00
-1.00000000e+00
-1.00000000e+00
1.00000000e+00
-1.00000000e+00
-1.00000000e+00
-1.00000000e+00
-1.00000000e+00
-1.00000000e+00
-1.00000000e+00
-1.00000000e+00
1.00000000e+00
1.00000000e+00
1.00000000e+00
1.00000000e+00
1.00000000e+00
1.00000000e+00
1.00000000e+00
1.00000000e+00
-1.00000000e+00
-1.00000000e+00
-1.00000000e+00
1.00000000e+00
1.00000000e+00
1.00000000e+00
1.00000000e+00
-1.00000000e+00
1.00000000e+00
-1.00000000e+00
1.00000000e+00
-1.00000000e+00
1.00000000e+00
1.00000000e+00
1.00000000e+00
1.00000000e+00
1.00000000e+00
1.00000000e+00
1.00000000e+00
1.00000000e+00
1.00000000e+00
-1.00000000e+00
-1.00000000e+00
-1.00000000e+00
1.00000000e+00
1.00000000e+00
1.00000000e+00
1.00000000e+00
1.00000000e+00
-1.00000000e+00
-1.00000000e+00
-1.00000000e+00
-1.00000000e+00
1.00000000e+00
1.00000000e+00
-1.00000000e+00
-1.00000000e+00
-1.00000000e+00
-1.00000000e+00
-1.00000000e+00
1.00000000e+00
1.00000000e+00
1.00000000e+00
1.00000000e+00
1.00000000e+00
-1.00000000e+00
-1.00000000e+00
1.00000000e+00
-1.00000000e+00
-1.00000000e+00
-1.00000000e+00
1.00000000e+00
1.00000000e+00
-1.00000000e+00
1.00000000e+00
1.00000000e+00
1.00000000e+00
-1.00000000e+00
-1.00000000e+00
-1.00000000e+00
1.00000000e+00
1.00000000e+00
-1.00000000e+00
-1.00000000e+00
-1.00000000e+00
1.00000000e+00
1.00000000e+00
1.00000000e+00
1.00000000e+00
-1.00000000e+00
-1.00000000e+00
-1.00000000e+00
1.00000000e+00
1.00000000e+00
-1.00000000e+00
1.00000000e+00
1.00000000e+00
1.00000000e+00
1.00000000e+00
1.00000000e+00
1.00000000e+00
1.00000000e+00
1.00000000e+00
-1.00000000e+00
-1.00000000e+00
-1.00000000e+00
-1.00000000e+00
-1.00000000e+00
1.00000000e+00
1.00000000e+00
1.00000000e+00
1.00000000e+00
-1.00000000e+00
-1.00000000e+00
-1.00000000e+00
-1.00000000e+00
1.00000000e+00
1.00000000e+00
-1.00000000e+00
-1.00000000e+00
1.00000000e+00
1.00000000e+00
-1.00000000e+00
-1.00000000e+00
-1.00000000e+00
1.00000000e+00
1.00000000e+00
-1.00000000e+00
-1.00000000e+00
-1.00000000e+00
1.00000000e+00
-1.00000000e+00
1.00000000e+00
-1.00000000e+00
1.00000000e+00
1.00000000e+00
-1.00000000e+00
-1.00000000e+00
-1.00000000e+00
1.00000000e+00
1.00000000e+00
-1.00000000e+00
1.00000000e+00
-1.00000000e+00
-1.00000000e+00
1.00000000e+00
-1.00000000e+00
1.00000000e+00
-1.00000000e+00
1.00000000e+00
1.00000000e+00
-1.00000000e+00
-1.00000000e+00
1.00000000e+00
1.00000000e+00
1.00000000e+00
1.00000000e+00
-1.00000000e+00
1.00000000e+00
1.00000000e+00
1.00000000e+00
1.00000000e+00
1.00000000e+00
-1.00000000e+00
-1.00000000e+00
-1.00000000e+00
-1.00000000e+00
-1.00000000e+00
1.00000000e+00
1.00000000e+00
1.00000000e+00
-1.00000000e+00
-1.00000000e+00
-1.00000000e+00
1.00000000e+00
-1.00000000e+00
-1.00000000e+00
1.00000000e+00
1.00000000e+00
1.00000000e+00
1.00000000e+00
1.00000000e+00
1.00000000e+00
-1.00000000e+00
1.00000000e+00
-1.00000000e+00
-1.00000000e+00
-1.00000000e+00
1.00000000e+00
1.00000000e+00
1.00000000e+00
-1.00000000e+00
1.00000000e+00
1.00000000e+00
1.00000000e+00
1.00000000e+00
1.00000000e+00
1.00000000e+00
1.00000000e+00
1.00000000e+00
1.00000000e+00
1.00000000e+00
-1.00000000e+00
1.00000000e+00
-1.00000000e+00
-1.00000000e+00
1.00000000e+00
1.00000000e+00
-1.00000000e+00
1.00000000e+00
-1.00000000e+00
1.00000000e+00
-1.00000000e+00
-1.00000000e+00
1.00000000e+00
1.00000000e+00
1.00000000e+00
1.00000000e+00
1.00000000e+00
1.00000000e+00
1.00000000e+00
-1.00000000e+00
-1.00000000e+00
-1.00000000e+00
1.00000000e+00
-1.00000000e+00
1.00000000e+00
-1.00000000e+00
1.00000000e+00
-1.00000000e+00
-1.00000000e+00
-1.00000000e+00
1.00000000e+00
1.00000000e+00
1.00000000e+00
-1.00000000e+00
1.00000000e+00
-1.00000000e+00
1.00000000e+00
-1.00000000e+00
-1.00000000e+00
-1.00000000e+00
1.00000000e+00
1.00000000e+00
1.00000000e+00
1.00000000e+00
-1.00000000e+00
-1.00000000e+00
-1.00000000e+00
-1.00000000e+00
-1.00000000e+00
1.00000000e+00
1.00000000e+00
1.00000000e+00
1.00000000e+00
1.00000000e+00
1.00000000e+00
-1.00000000e+00
-1.00000000e+00
-1.00000000e+00
1.00000000e+00
1.00000000e+00
1.00000000e+00
1.00000000e+00
-1.00000000e+00
-1.00000000e+00
-1.00000000e+00
-1.00000000e+00
-1.00000000e+00
1.00000000e+00
1.00000000e+00
1.00000000e+00
1.00000000e+00
1.00000000e+00
-1.00000000e+00
-1.00000000e+00
1.00000000e+00
1.00000000e+00
1.00000000e+00
-1.00000000e+00
1.00000000e+00
1.00000000e+00
-1.00000000e+00
1.00000000e+00
1.00000000e+00
-1.00000000e+00
1.00000000e+00
1.00000000e+00
1.00000000e+00
1.00000000e+00
-1.00000000e+00
-1.00000000e+00
1.00000000e+00
-1.00000000e+00
-1.00000000e+00
1.00000000e+00
-1.00000000e+00
-1.00000000e+00
1.00000000e+00
1.00000000e+00
1.00000000e+00
1.00000000e+00
1.00000000e+00
1.00000000e+00
-1.00000000e+00
1.00000000e+00
1.00000000e+00
1.00000000e+00
1.00000000e+00
-1.00000000e+00
-1.00000000e+00
1.00000000e+00
-1.00000000e+00
1.00000000e+00
1.00000000e+00
1.00000000e+00
1.00000000e+00
1.00000000e+00
1.00000000e+00
1.00000000e+00
1.00000000e+00
-1.00000000e+00
-1.00000000e+00
1.00000000e+00
1.00000000e+00
1.00000000e+00
-1.00000000e+00
-1.00000000e+00
1.00000000e+00
-1.00000000e+00
-1.00000000e+00
1.00000000e+00
1.00000000e+00
-1.00000000e+00
1.00000000e+00
-1.00000000e+00
1.00000000e+00
1.00000000e+00
-1.00000000e+00
1.00000000e+00
1.00000000e+00
-1.00000000e+00
-1.00000000e+00
-1.00000000e+00
-1.00000000e+00
-1.00000000e+00
-1.00000000e+00
-1.00000000e+00
-1.00000000e+00
1.00000000e+00
-1.00000000e+00
-1.00000000e+00
1.00000000e+00
-1.00000000e+00
-1.00000000e+00
1.00000000e+00
-1.00000000e+00
1.00000000e+00
1.00000000e+00
-1.00000000e+00
1.00000000e+00
-1.00000000e+00
1.00000000e+00
-1.00000000e+00
1.00000000e+00
-1.00000000e+00
1.00000000e+00
1.00000000e+00
-1.00000000e+00
-1.00000000e+00
1.00000000e+00
-1.00000000e+00
1.00000000e+00
1.00000000e+00
1.00000000e+00
-1.00000000e+00
-1.00000000e+00
1.00000000e+00
1.00000000e+00
1.00000000e+00
1.00000000e+00
1.00000000e+00
1.00000000e+00
1.00000000e+00
-1.00000000e+00
-1.00000000e+00
1.00000000e+00
1.00000000e+00
1.00000000e+00
-1.00000000e+00
-1.00000000e+00
-1.00000000e+00
-1.00000000e+00
-1.00000000e+00
1.00000000e+00
1.00000000e+00
1.00000000e+00
1.00000000e+00
-1.00000000e+00
-1.00000000e+00
-1.00000000e+00
1.00000000e+00
-1.00000000e+00
1.00000000e+00
-1.00000000e+00
-1.00000000e+00
1.00000000e+00
-1.00000000e+00
-1.00000000e+00
-1.00000000e+00
-1.00000000e+00
1.00000000e+00
1.00000000e+00
-1.00000000e+00
-1.00000000e+00
1.00000000e+00
1.00000000e+00
1.00000000e+00
-1.00000000e+00
1.00000000e+00
-1.00000000e+00
1.00000000e+00
-1.00000000e+00
1.00000000e+00
-1.00000000e+00
1.00000000e+00
-1.00000000e+00
1.00000000e+00
-1.00000000e+00
-1.00000000e+00
1.00000000e+00
1.00000000e+00
-1.00000000e+00
1.00000000e+00
-1.00000000e+00
-1.00000000e+00
-1.00000000e+00
-1.00000000e+00
1.00000000e+00
1.00000000e+00
-1.00000000e+00
1.00000000e+00
1.00000000e+00
1.00000000e+00
-1.00000000e+00
-1.00000000e+00
-1.00000000e+00
-1.00000000e+00
-1.00000000e+00
-1.00000000e+00
1.00000000e+00
-1.00000000e+00
1.00000000e+00
-1.00000000e+00
1.00000000e+00
1.00000000e+00
-1.00000000e+00
-1.00000000e+00
-1.00000000e+00
1.00000000e+00
1.00000000e+00
-1.00000000e+00
-1.00000000e+00
-1.00000000e+00
1.00000000e+00
1.00000000e+00
1.00000000e+00
-1.00000000e+00
-1.00000000e+00
-1.00000000e+00
-1.00000000e+00
-1.00000000e+00
-1.00000000e+00
-1.00000000e+00
1.00000000e+00
1.00000000e+00
1.00000000e+00
1.00000000e+00
1.00000000e+00
1.00000000e+00
1.00000000e+00
1.00000000e+00
1.00000000e+00
1.00000000e+00
1.00000000e+00
1.00000000e+00
1.00000000e+00
1.00000000e+00
1.00000000e+00
1.00000000e+00
1.00000000e+00
-1.00000000e+00
-1.00000000e+00
1.00000000e+00
1.00000000e+00
-1.00000000e+00
1.00000000e+00
-1.00000000e+00
1.00000000e+00
1.00000000e+00
1.00000000e+00
1.00000000e+00
1.00000000e+00
-1.00000000e+00
-1.00000000e+00
1.00000000e+00
-1.00000000e+00
-1.00000000e+00
-1.00000000e+00
-1.00000000e+00
1.00000000e+00
1.00000000e+00
1.00000000e+00
-1.00000000e+00
1.00000000e+00
-1.00000000e+00
1.00000000e+00
-1.00000000e+00
1.00000000e+00
-1.00000000e+00
1.00000000e+00
1.00000000e+00
-1.00000000e+00
-1.00000000e+00
-1.00000000e+00
1.00000000e+00
1.00000000e+00
-1.00000000e+00
-1.00000000e+00
1.00000000e+00
1.00000000e+00
1.00000000e+00
1.00000000e+00
-1.00000000e+00
-1.00000000e+00
1.00000000e+00
-1.00000000e+00
1.00000000e+00
1.00000000e+00
1.00000000e+00
1.00000000e+00
1.00000000e+00
1.00000000e+00
1.00000000e+00
1.00000000e+00
-1.00000000e+00
1.00000000e+00
1.00000000e+00
1.00000000e+00
1.00000000e+00
1.00000000e+00
1.00000000e+00
1.00000000e+00
1.00000000e+00
-1.00000000e+00
1.00000000e+00
-1.00000000e+00
-1.00000000e+00
-1.00000000e+00
-1.00000000e+00
-1.00000000e+00
-1.00000000e+00
1.00000000e+00
1.00000000e+00
1.00000000e+00
1.00000000e+00
1.00000000e+00
-1.00000000e+00
1.00000000e+00
-1.00000000e+00
-1.00000000e+00
1.00000000e+00
1.00000000e+00
-1.00000000e+00
1.00000000e+00
1.00000000e+00
1.00000000e+00
1.00000000e+00
1.00000000e+00
-1.00000000e+00
1.00000000e+00
1.00000000e+00
1.00000000e+00
1.00000000e+00
-1.00000000e+00
-1.00000000e+00
-1.00000000e+00
1.00000000e+00
-1.00000000e+00
-1.00000000e+00
-1.00000000e+00
1.00000000e+00
1.00000000e+00
-1.00000000e+00
1.00000000e+00
-1.00000000e+00
-1.00000000e+00
-1.00000000e+00
1.00000000e+00
1.00000000e+00
1.00000000e+00
-1.00000000e+00
-1.00000000e+00
-1.00000000e+00
-1.00000000e+00
1.00000000e+00
1.00000000e+00
1.00000000e+00
-1.00000000e+00
1.00000000e+00
1.00000000e+00
1.00000000e+00
1.00000000e+00
1.00000000e+00
1.00000000e+00
1.00000000e+00
1.00000000e+00
1.00000000e+00
1.00000000e+00
1.00000000e+00
-1.00000000e+00
-1.00000000e+00
1.00000000e+00
-1.00000000e+00
1.00000000e+00
1.00000000e+00
-1.00000000e+00
-1.00000000e+00
-1.00000000e+00
-1.00000000e+00
-1.00000000e+00
-1.00000000e+00
1.00000000e+00
-1.00000000e+00
-1.00000000e+00
1.00000000e+00
-1.00000000e+00
1.00000000e+00
1.00000000e+00
1.00000000e+00
1.00000000e+00
-1.00000000e+00
1.00000000e+00
-1.00000000e+00
-1.00000000e+00
1.00000000e+00
-1.00000000e+00
-1.00000000e+00
-1.00000000e+00
-1.00000000e+00
1.00000000e+00
-1.00000000e+00
-1.00000000e+00
1.00000000e+00
1.00000000e+00
-1.00000000e+00
-1.00000000e+00
-1.00000000e+00
-1.00000000e+00
-1.00000000e+00
-1.00000000e+00
-1.00000000e+00
-1.00000000e+00
-1.00000000e+00
-1.00000000e+00
-1.00000000e+00
-1.00000000e+00
-1.00000000e+00
-1.00000000e+00
-1.00000000e+00
1.00000000e+00
-1.00000000e+00
-1.00000000e+00
1.00000000e+00
1.00000000e+00
1.00000000e+00
1.00000000e+00
1.00000000e+00
1.00000000e+00
1.00000000e+00
1.00000000e+00
1.00000000e+00
1.00000000e+00
1.00000000e+00
1.00000000e+00
1.00000000e+00
-1.00000000e+00
-1.00000000e+00
1.00000000e+00
-1.00000000e+00
1.00000000e+00
1.00000000e+00
-1.00000000e+00
-1.00000000e+00
-1.00000000e+00
-1.00000000e+00
-1.00000000e+00
-1.00000000e+00
1.00000000e+00
1.00000000e+00
-1.00000000e+00
-1.00000000e+00
-1.00000000e+00
-1.00000000e+00
1.00000000e+00
-1.00000000e+00
1.00000000e+00
1.00000000e+00
-1.00000000e+00
-1.00000000e+00
-1.00000000e+00
-1.00000000e+00
-1.00000000e+00
1.00000000e+00
-1.00000000e+00
1.00000000e+00
1.00000000e+00
-1.00000000e+00
-1.00000000e+00
1.00000000e+00
1.00000000e+00
1.00000000e+00
1.00000000e+00
-1.00000000e+00
1.00000000e+00
-1.00000000e+00
-1.00000000e+00
1.00000000e+00
-1.00000000e+00
-1.00000000e+00
-1.00000000e+00
1.00000000e+00
-1.00000000e+00
1.00000000e+00
1.00000000e+00
-1.00000000e+00
1.00000000e+00
-1.00000000e+00
-1.00000000e+00
-1.00000000e+00
-1.00000000e+00
1.00000000e+00
1.00000000e+00
1.00000000e+00
-1.00000000e+00
-1.00000000e+00
-1.00000000e+00
-1.00000000e+00
-1.00000000e+00
-1.00000000e+00
-1.00000000e+00
-1.00000000e+00
1.00000000e+00
-1.00000000e+00
-1.00000000e+00
-1.00000000e+00
-1.00000000e+00
-1.00000000e+00
-1.00000000e+00
-1.00000000e+00
-1.00000000e+00
-1.00000000e+00
-1.00000000e+00
-1.00000000e+00
-1.00000000e+00
-1.00000000e+00
-1.00000000e+00
1.00000000e+00
-1.00000000e+00
1.00000000e+00
1.00000000e+00
1.00000000e+00
-1.00000000e+00
1.00000000e+00
-1.00000000e+00
-1.00000000e+00
1.00000000e+00
-1.00000000e+00
1.00000000e+00
-1.00000000e+00
1.00000000e+00
1.00000000e+00
-1.00000000e+00
-1.00000000e+00
-1.00000000e+00
-1.00000000e+00
-1.00000000e+00
-1.00000000e+00
1.00000000e+00
-1.00000000e+00
1.00000000e+00
-1.00000000e+00
-1.00000000e+00
-1.00000000e+00
-1.00000000e+00
-1.00000000e+00
-1.00000000e+00
1.00000000e+00
-1.00000000e+00
-1.00000000e+00
-1.00000000e+00
-1.00000000e+00
-1.00000000e+00
1.00000000e+00
-1.00000000e+00
1.00000000e+00
-1.00000000e+00
-1.00000000e+00
1.00000000e+00
-1.00000000e+00
-1.00000000e+00
-1.00000000e+00
1.00000000e+00
-1.00000000e+00
-1.00000000e+00
-1.00000000e+00
-1.00000000e+00
1.00000000e+00
1.00000000e+00
1.00000000e+00
1.00000000e+00
-1.00000000e+00
-1.00000000e+00
-1.00000000e+00
1.00000000e+00
-1.00000000e+00
-1.00000000e+00
-1.00000000e+00
-1.00000000e+00
-1.00000000e+00
-1.00000000e+00
-1.00000000e+00
1.00000000e+00
1.00000000e+00
-1.00000000e+00
1.00000000e+00
1.00000000e+00
1.00000000e+00
1.00000000e+00
-1.00000000e+00
1.00000000e+00
1.00000000e+00
1.00000000e+00
1.00000000e+00
1.00000000e+00
1.00000000e+00
1.00000000e+00
-1.00000000e+00
1.00000000e+00
1.00000000e+00
-1.00000000e+00
1.00000000e+00
1.00000000e+00
-1.00000000e+00
-1.00000000e+00
1.00000000e+00
-1.00000000e+00
-1.00000000e+00
1.00000000e+00
1.00000000e+00
-1.00000000e+00
1.00000000e+00
-1.00000000e+00
1.00000000e+00
-1.00000000e+00
-1.00000000e+00
1.00000000e+00
-1.00000000e+00
-1.00000000e+00
1.00000000e+00
-1.00000000e+00
-1.00000000e+00
-1.00000000e+00
-1.00000000e+00
1.00000000e+00
-1.00000000e+00
-1.00000000e+00
1.00000000e+00
-1.00000000e+00
1.00000000e+00
1.00000000e+00
-1.00000000e+00
-1.00000000e+00
-1.00000000e+00
-1.00000000e+00
1.00000000e+00
-1.00000000e+00
1.00000000e+00
1.00000000e+00
-1.00000000e+00
-1.00000000e+00
-1.00000000e+00
1.00000000e+00
-1.00000000e+00
1.00000000e+00
1.00000000e+00
-1.00000000e+00
1.00000000e+00
1.00000000e+00
1.00000000e+00
-1.00000000e+00
-1.00000000e+00
1.00000000e+00
1.00000000e+00
-1.00000000e+00
1.00000000e+00
1.00000000e+00
-1.00000000e+00
1.00000000e+00
1.00000000e+00
-1.00000000e+00
1.00000000e+00
-1.00000000e+00
-1.00000000e+00
1.00000000e+00
-1.00000000e+00
-1.00000000e+00
-1.00000000e+00
1.00000000e+00
1.00000000e+00
-1.00000000e+00
1.00000000e+00
1.00000000e+00
-1.00000000e+00
-1.00000000e+00
1.00000000e+00
1.00000000e+00
-1.00000000e+00
-1.00000000e+00
1.00000000e+00
-1.00000000e+00
-1.00000000e+00
1.00000000e+00
-1.00000000e+00
-1.00000000e+00
1.00000000e+00
1.00000000e+00
-1.00000000e+00
1.00000000e+00
-1.00000000e+00
-1.00000000e+00
1.00000000e+00
-1.00000000e+00
-1.00000000e+00
-1.00000000e+00
1.00000000e+00
1.00000000e+00
-1.00000000e+00
-1.00000000e+00
1.00000000e+00
-1.00000000e+00
-1.00000000e+00
1.00000000e+00
-1.00000000e+00
-1.00000000e+00
1.00000000e+00
1.00000000e+00
1.00000000e+00
1.00000000e+00
-1.00000000e+00
1.00000000e+00
1.00000000e+00
1.00000000e+00
-1.00000000e+00
-1.00000000e+00
1.00000000e+00
1.00000000e+00
-1.00000000e+00
1.00000000e+00
-1.00000000e+00
-1.00000000e+00
1.00000000e+00
1.00000000e+00
-1.00000000e+00
-1.00000000e+00
1.00000000e+00
-1.00000000e+00
-1.00000000e+00
1.00000000e+00
-1.00000000e+00
-1.00000000e+00
1.00000000e+00
-1.00000000e+00
1.00000000e+00
1.00000000e+00
-1.00000000e+00
1.00000000e+00
1.00000000e+00
-1.00000000e+00
-1.00000000e+00
1.00000000e+00
-1.00000000e+00
1.00000000e+00
1.00000000e+00
-1.00000000e+00
-1.00000000e+00
1.00000000e+00
1.00000000e+00
-1.00000000e+00
-1.00000000e+00
1.00000000e+00
1.00000000e+00
-1.00000000e+00
-1.00000000e+00
1.00000000e+00
-1.00000000e+00
-1.00000000e+00
1.00000000e+00
1.00000000e+00
-1.00000000e+00
-1.00000000e+00
1.00000000e+00
-1.00000000e+00
-1.00000000e+00
1.00000000e+00
-1.00000000e+00
-1.00000000e+00
-1.00000000e+00
-1.00000000e+00
-1.00000000e+00
1.00000000e+00
1.00000000e+00
-1.00000000e+00
-1.00000000e+00
1.00000000e+00
-1.00000000e+00
-1.00000000e+00
1.00000000e+00
1.00000000e+00
-1.00000000e+00
-1.00000000e+00
1.00000000e+00
1.00000000e+00
-1.00000000e+00
-1.00000000e+00
-1.00000000e+00
1.00000000e+00
1.00000000e+00
-1.00000000e+00
1.00000000e+00
1.00000000e+00
1.00000000e+00
-1.00000000e+00
1.00000000e+00
1.00000000e+00
-1.00000000e+00
1.00000000e+00
-1.00000000e+00
-1.00000000e+00
1.00000000e+00
1.00000000e+00
-1.00000000e+00
-1.00000000e+00
-1.00000000e+00
-1.00000000e+00
-1.00000000e+00
-1.00000000e+00
-1.00000000e+00
-1.00000000e+00
-1.00000000e+00
-1.00000000e+00
1.00000000e+00
-1.00000000e+00
-1.00000000e+00
1.00000000e+00
1.00000000e+00
-1.00000000e+00
1.00000000e+00
1.00000000e+00
-1.00000000e+00
1.00000000e+00
-1.00000000e+00
1.00000000e+00
1.00000000e+00
-1.00000000e+00
-1.00000000e+00
1.00000000e+00
-1.00000000e+00
-1.00000000e+00
1.00000000e+00
1.00000000e+00
-1.00000000e+00
1.00000000e+00
-1.00000000e+00
-1.00000000e+00
1.00000000e+00
1.00000000e+00
-1.00000000e+00
-1.00000000e+00
1.00000000e+00
-1.00000000e+00
-1.00000000e+00
1.00000000e+00
-1.00000000e+00
1.00000000e+00
1.00000000e+00
-1.00000000e+00
1.00000000e+00
-1.00000000e+00
1.00000000e+00
-1.00000000e+00
-1.00000000e+00
1.00000000e+00
1.00000000e+00
1.00000000e+00
-1.00000000e+00
1.00000000e+00
1.00000000e+00
-1.00000000e+00
1.00000000e+00
-1.00000000e+00
-1.00000000e+00
1.00000000e+00
-1.00000000e+00
-1.00000000e+00
1.00000000e+00
1.00000000e+00
-1.00000000e+00
1.00000000e+00
1.00000000e+00
-1.00000000e+00
1.00000000e+00
1.00000000e+00
-1.00000000e+00
1.00000000e+00
-1.00000000e+00
-1.00000000e+00
